<?xml version="1.0"?>
<opencv_storage>
<cascade>
  <stageType>BOOST</stageType>
  <featureType>LBP</featureType>
  <height>24</height>
  <width>24</width>
  <stageParams>
    <boostType>GAB</boostType>
    <minHitRate>9.9500000476837158e-01</minHitRate>
    <maxFalseAlarm>5.0000000000000000e-01</maxFalseAlarm>
    <weightTrimRate>9.4999999999999996e-01</weightTrimRate>
    <maxDepth>1</maxDepth>
    <maxWeakCount>100</maxWeakCount></stageParams>
  <featureParams>
    <maxCatCount>256</maxCatCount>
    <featSize>1</featSize></featureParams>
  <stageNum>51</stageNum>
  <stages>
    <!-- stage 0 -->
    <_>
      <maxWeakCount>2</maxWeakCount>
      <stageThreshold>-6.6765367984771729e-02</stageThreshold>
      <weakClassifiers>
        <_>
          <internalNodes>
            0 -1 41 1090848817 -1592590079 1090519041 319029257
            134416523 33554432 -2147417958 1669767309</internalNodes>
          <leafValues>
            -9.3548387289047241e-01 8.1308412551879883e-01</leafValues></_>
        <_>
          <internalNodes>
            0 -1 20 -531406837 1677789488 1073758371 889897255 5 229376
            1082139152 -1412743153</internalNodes>
          <leafValues>
            -8.7984949350357056e-01 9.0481632947921753e-01</leafValues></_></weakClassifiers></_>
    <!-- stage 1 -->
    <_>
      <maxWeakCount>2</maxWeakCount>
      <stageThreshold>-1.6835671663284302e-01</stageThreshold>
      <weakClassifiers>
        <_>
          <internalNodes>
            0 -1 26 1342394643 822149128 4097 -2060779256 -2130046971
            -2147401695 -1610608639 -1031569143</internalNodes>
          <leafValues>
            -9.5652174949645996e-01 8.1481480598449707e-01</leafValues></_>
        <_>
          <internalNodes>
            0 -1 33 -784312047 1342259202 -2147483520 -917372927
            -1073581055 1879065345 16389 -666695667</internalNodes>
          <leafValues>
            -9.8317152261734009e-01 8.1202262639999390e-01</leafValues></_></weakClassifiers></_>
    <!-- stage 2 -->
    <_>
      <maxWeakCount>2</maxWeakCount>
      <stageThreshold>-1.4368568360805511e-01</stageThreshold>
      <weakClassifiers>
        <_>
          <internalNodes>
            0 -1 7 -1560231277 1505771536 91 1963982976 537526537
            1923088392 -2013232565 662962184</internalNodes>
          <leafValues>
            -9.5454543828964233e-01 7.5000000000000000e-01</leafValues></_>
        <_>
          <internalNodes>
            0 -1 5 1262488081 1342259200 270581776 285213458 20
            -938999808 -2012671968 -377339896</internalNodes>
          <leafValues>
            -8.9368569850921631e-01 8.5201400518417358e-01</leafValues></_></weakClassifiers></_>
    <!-- stage 3 -->
    <_>
      <maxWeakCount>2</maxWeakCount>
      <stageThreshold>8.8277369737625122e-02</stageThreshold>
      <weakClassifiers>
        <_>
          <internalNodes>
            0 -1 23 -193 1065353215 -1 2013265919 -18841801 2147483519
            -136347787 -141180924</internalNodes>
          <leafValues>
            -8.4615385532379150e-01 9.1666668653488159e-01</leafValues></_>
        <_>
          <internalNodes>
            0 -1 12 1111572487 16875648 27262977 -1950351357 33555457
            100354 -2130441204 -20193213</internalNodes>
          <leafValues>
            -8.2319164276123047e-01 9.3443119525909424e-01</leafValues></_></weakClassifiers></_>
    <!-- stage 4 -->
    <_>
      <maxWeakCount>2</maxWeakCount>
      <stageThreshold>2.7879608795046806e-02</stageThreshold>
      <weakClassifiers>
        <_>
          <internalNodes>
            0 -1 35 -18437 2147483647 -32961 -16385 2138922869 -2049
            2147384947 -1074839553</internalNodes>
          <leafValues>
            -7.6785713434219360e-01 9.7727274894714355e-01</leafValues></_>
        <_>
          <internalNodes>
            0 -1 39 33751071 -1861140464 1048915 -2080047037 -2147352161
            34079752 35977 1115849360</internalNodes>
          <leafValues>
            -9.4939309358596802e-01 8.4230434894561768e-01</leafValues></_></weakClassifiers></_>
    <!-- stage 5 -->
    <_>
      <maxWeakCount>2</maxWeakCount>
      <stageThreshold>-1.7245246469974518e-01</stageThreshold>
      <weakClassifiers>
        <_>
          <internalNodes>
            0 -1 56 1342243931 318832771 -2147450879 -1056959983
            -805289971 -1606221814 -1744633721 546228743</internalNodes>
          <leafValues>
            -9.5402300357818604e-01 7.3451328277587891e-01</leafValues></_>
        <_>
          <internalNodes>
            0 -1 42 -1928069117 -1995300799 285245699 -1677656063
            50364438 -1811939194 1212221954 1115783174</internalNodes>
          <leafValues>
            -9.0696573257446289e-01 8.1568479537963867e-01</leafValues></_></weakClassifiers></_>
    <!-- stage 6 -->
    <_>
      <maxWeakCount>2</maxWeakCount>
      <stageThreshold>-1.6929617524147034e-01</stageThreshold>
      <weakClassifiers>
        <_>
          <internalNodes>
            0 -1 19 -1862152609 -1879048183 73 -1207959551 1082690124
            201458441 1207992321 1342497024</internalNodes>
          <leafValues>
            -9.5555555820465088e-01 7.8181821107864380e-01</leafValues></_>
        <_>
          <internalNodes>
            0 -1 53 -2092740193 289411073 328 -1879043768 1476526133
            1342275586 1107329153 1120422027</internalNodes>
          <leafValues>
            -9.3478524684906006e-01 7.8625941276550293e-01</leafValues></_></weakClassifiers></_>
    <!-- stage 7 -->
    <_>
      <maxWeakCount>2</maxWeakCount>
      <stageThreshold>-1.2168060243129730e-01</stageThreshold>
      <weakClassifiers>
        <_>
          <internalNodes>
            0 -1 24 1619068979 268439744 -2147467005 -2013200383 131072
            -1610612719 268435473 -661129053</internalNodes>
          <leafValues>
            -9.3103450536727905e-01 7.1681416034698486e-01</leafValues></_>
        <_>
          <internalNodes>
            0 -1 83 -1744465201 163840 64 -1593769950 71598233 201326592
            8486912 -1056225785</internalNodes>
          <leafValues>
            -8.3849477767944336e-01 8.2590550184249878e-01</leafValues></_></weakClassifiers></_>
    <!-- stage 8 -->
    <_>
      <maxWeakCount>2</maxWeakCount>
      <stageThreshold>-1.3391251862049103e-01</stageThreshold>
      <weakClassifiers>
        <_>
          <internalNodes>
            0 -1 13 -2147367887 -721320768 268795991 -1513603007
            -2013134847 679477250 -1604313056 -1826321920</internalNodes>
          <leafValues>
            -9.1208791732788086e-01 7.6146787405014038e-01</leafValues></_>
        <_>
          <internalNodes>
            0 -1 46 805322905 218136837 36896 289968129 1117782029
            806357124 -2147449656 797706762</internalNodes>
          <leafValues>
            -8.9035606384277344e-01 7.7817541360855103e-01</leafValues></_></weakClassifiers></_>
    <!-- stage 9 -->
    <_>
      <maxWeakCount>2</maxWeakCount>
      <stageThreshold>-2.4498802423477173e-01</stageThreshold>
      <weakClassifiers>
        <_>
          <internalNodes>
            0 -1 59 1359190055 -536833023 0 -1945829373 268468224
            75497993 -2147442032 1389042699</internalNodes>
          <leafValues>
            -9.5238095521926880e-01 6.8965518474578857e-01</leafValues></_>
        <_>
          <internalNodes>
            0 -1 44 -2126426085 89335808 1073872896 -1876885229 2
            134266882 -1945499616 1645961379</internalNodes>
          <leafValues>
            -9.3464320898056030e-01 7.3193734884262085e-01</leafValues></_></weakClassifiers></_>
    <!-- stage 10 -->
    <_>
      <maxWeakCount>2</maxWeakCount>
      <stageThreshold>-2.0085068047046661e-01</stageThreshold>
      <weakClassifiers>
        <_>
          <internalNodes>
            0 -1 50 -1071463589 -2147463148 8486916 402849793 65562
            73858 33184 731856905</internalNodes>
          <leafValues>
            -9.5180720090866089e-01 6.7521369457244873e-01</leafValues></_>
        <_>
          <internalNodes>
            0 -1 92 -1072959485 16974080 -2147483625 -1056964351
            1090620417 268435456 256 11264010</internalNodes>
          <leafValues>
            -8.7606436014175415e-01 7.6015502214431763e-01</leafValues></_></weakClassifiers></_>
    <!-- stage 11 -->
    <_>
      <maxWeakCount>2</maxWeakCount>
      <stageThreshold>-2.3298320174217224e-01</stageThreshold>
      <weakClassifiers>
        <_>
          <internalNodes>
            0 -1 31 1913770011 1644693524 4 1125203984 150995592
            847773888 1107296480 581500938</internalNodes>
          <leafValues>
            -9.0361446142196655e-01 6.4102566242218018e-01</leafValues></_>
        <_>
          <internalNodes>
            0 -1 43 1879887955 1346453506 65552 -2029633536 -2147483648
            18560 134400096 -1702819840</internalNodes>
          <leafValues>
            -8.7400883436203003e-01 7.1903115510940552e-01</leafValues></_></weakClassifiers></_>
    <!-- stage 12 -->
    <_>
      <maxWeakCount>2</maxWeakCount>
      <stageThreshold>-2.1744720637798309e-01</stageThreshold>
      <weakClassifiers>
        <_>
          <internalNodes>
            0 -1 2 16879673 352339200 16777304 1494421505 134283329
            -1333755648 -2013265888 973210057</internalNodes>
          <leafValues>
            -9.5061731338500977e-01 6.4705884456634521e-01</leafValues></_>
        <_>
          <internalNodes>
            0 -1 97 -1064127163 -2134863869 1 360448 196608 -2147442688
            642 47415371</internalNodes>
          <leafValues>
            -8.6450600624084473e-01 7.9859554767608643e-01</leafValues></_></weakClassifiers></_>
    <!-- stage 13 -->
    <_>
      <maxWeakCount>2</maxWeakCount>
      <stageThreshold>-1.6555021703243256e-01</stageThreshold>
      <weakClassifiers>
        <_>
          <internalNodes>
            0 -1 38 1091781837 25165889 16513 100352 98882 142606851
            212993 219087467</internalNodes>
          <leafValues>
            -9.2857140302658081e-01 6.7241376638412476e-01</leafValues></_>
        <_>
          <internalNodes>
            0 -1 28 285327569 1477509120 16421 285212736 512 -1610448768
            538 -2092725757</internalNodes>
          <leafValues>
            -8.3796399831771851e-01 8.0599272251129150e-01</leafValues></_></weakClassifiers></_>
    <!-- stage 14 -->
    <_>
      <maxWeakCount>2</maxWeakCount>
      <stageThreshold>-1.5152299404144287e-01</stageThreshold>
      <weakClassifiers>
        <_>
          <internalNodes>
            0 -1 87 1359061125 69779457 -2146410494 8454496 -2080372734
            -1610612736 -2147483640 -1399783288</internalNodes>
          <leafValues>
            -8.8764047622680664e-01 7.1171170473098755e-01</leafValues></_>
        <_>
          <internalNodes>
            0 -1 47 1073840198 -2130667520 536903681 17892385 21594120
            285212672 -2147254126 -1333764092</internalNodes>
          <leafValues>
            -8.6323469877243042e-01 7.7189177274703979e-01</leafValues></_></weakClassifiers></_>
    <!-- stage 15 -->
    <_>
      <maxWeakCount>2</maxWeakCount>
      <stageThreshold>-9.0339720249176025e-02</stageThreshold>
      <weakClassifiers>
        <_>
          <internalNodes>
            0 -1 34 2139072445 -1 -32769 -536838146 -1074317452 1
            -1577041877 -1073774293</internalNodes>
          <leafValues>
            -7.0642203092575073e-01 8.4615385532379150e-01</leafValues></_>
        <_>
          <internalNodes>
            0 -1 15 -1878867684 823459840 268468487 1359020096 295200
            -2013265919 -2147474943 -1064828918</internalNodes>
          <leafValues>
            -9.3649357557296753e-01 7.4241614341735840e-01</leafValues></_></weakClassifiers></_>
    <!-- stage 16 -->
    <_>
      <maxWeakCount>2</maxWeakCount>
      <stageThreshold>-5.4539371281862259e-02</stageThreshold>
      <weakClassifiers>
        <_>
          <internalNodes>
            0 -1 14 -1870479347 1074864128 1 -2130706416 1082278281
            637534208 -2147483638 688011274</internalNodes>
          <leafValues>
            -8.3505153656005859e-01 7.8640776872634888e-01</leafValues></_>
        <_>
          <internalNodes>
            0 -1 98 1141096465 -1069449216 -1879048192 541163522
            1073741888 131201 -670985706 3923978</internalNodes>
          <leafValues>
            -8.4094715118408203e-01 8.4120029211044312e-01</leafValues></_></weakClassifiers></_>
    <!-- stage 17 -->
    <_>
      <maxWeakCount>2</maxWeakCount>
      <stageThreshold>-1.2198205292224884e-01</stageThreshold>
      <weakClassifiers>
        <_>
          <internalNodes>
            0 -1 16 -1073479488 83886080 553648129 -1878835183
            -1040152440 1879050240 131208 321552456</internalNodes>
          <leafValues>
            -8.7096774578094482e-01 7.5700932741165161e-01</leafValues></_>
        <_>
          <internalNodes>
            0 -1 60 -1006565265 1342210048 16777216 16777224 -1023279104
            -1844838336 -2147467261 -1753006077</internalNodes>
          <leafValues>
            -8.7899142503738403e-01 8.0640381574630737e-01</leafValues></_></weakClassifiers></_>
    <!-- stage 18 -->
    <_>
      <maxWeakCount>2</maxWeakCount>
      <stageThreshold>4.3564580380916595e-02</stageThreshold>
      <weakClassifiers>
        <_>
          <internalNodes>
            0 -1 27 -788660299 -1 2147352567 -1 -1073936555 -1
            2147434103 -1169195009</internalNodes>
          <leafValues>
            -7.7358490228652954e-01 8.7234044075012207e-01</leafValues></_>
        <_>
          <internalNodes>
            0 -1 25 -2147286677 67174402 -2143288448 -1073545215 263425
            142606464 809795901 432439306</internalNodes>
          <leafValues>
            -8.2877582311630249e-01 8.6590296030044556e-01</leafValues></_></weakClassifiers></_>
    <!-- stage 19 -->
    <_>
      <maxWeakCount>2</maxWeakCount>
      <stageThreshold>6.5990105271339417e-02</stageThreshold>
      <weakClassifiers>
        <_>
          <internalNodes>
            0 -1 36 -33652745 -9502722 -35 -444596242 65393 -1073741824
            -2139092992 -1093323008</internalNodes>
          <leafValues>
            -7.9245281219482422e-01 8.9361703395843506e-01</leafValues></_>
        <_>
          <internalNodes>
            0 -1 94 1229205777 320 -2147334143 537133312 -1811906559
            -2055208959 -2139061752 -1407078397</internalNodes>
          <leafValues>
            -8.2762694358825684e-01 8.9252144098281860e-01</leafValues></_></weakClassifiers></_>
    <!-- stage 20 -->
    <_>
      <maxWeakCount>2</maxWeakCount>
      <stageThreshold>1.1592084169387817e-01</stageThreshold>
      <weakClassifiers>
        <_>
          <internalNodes>
            0 -1 51 1606416759 805306367 -16777217 -1107824641
            -276824288 2130705663 -9111689 -167952393</internalNodes>
          <leafValues>
            -7.2222220897674561e-01 8.4782606363296509e-01</leafValues></_>
        <_>
          <internalNodes>
            0 -1 89 286621969 17321986 1090519050 -2147397623 1074888768
            268500992 1107300483 -779517354</internalNodes>
          <leafValues>
            -7.3190522193908691e-01 8.8979691267013550e-01</leafValues></_></weakClassifiers></_>
    <!-- stage 21 -->
    <_>
      <maxWeakCount>2</maxWeakCount>
      <stageThreshold>1.4908625744283199e-02</stageThreshold>
      <weakClassifiers>
        <_>
          <internalNodes>
            0 -1 21 2147275135 -1 -134217729 -9 2139061622 1065320375
            -524431 -981465077</internalNodes>
          <leafValues>
            -7.9245281219482422e-01 8.9361703395843506e-01</leafValues></_>
        <_>
          <internalNodes>
            0 -1 3 -1056927683 1409286145 268435468 67371275 12585001
            524544 -2147481568 537010179</internalNodes>
          <leafValues>
            -8.7870842218399048e-01 8.5387986898422241e-01</leafValues></_></weakClassifiers></_>
    <!-- stage 22 -->
    <_>
      <maxWeakCount>2</maxWeakCount>
      <stageThreshold>-5.4517149925231934e-02</stageThreshold>
      <weakClassifiers>
        <_>
          <internalNodes>
            0 -1 9 -1056897013 4243488 82178 -1073709038 -1995897856 0
            73739 809862163</internalNodes>
          <leafValues>
            -8.2692307233810425e-01 8.9583331346511841e-01</leafValues></_>
        <_>
          <internalNodes>
            0 -1 71 1880244249 16832529 16793616 -2138013568 537002117
            131208 8421379 46153736</internalNodes>
          <leafValues>
            -9.5035046339035034e-01 8.1713771820068359e-01</leafValues></_></weakClassifiers></_>
    <!-- stage 23 -->
    <_>
      <maxWeakCount>2</maxWeakCount>
      <stageThreshold>-1.0896553844213486e-01</stageThreshold>
      <weakClassifiers>
        <_>
          <internalNodes>
            0 -1 6 22822923 268451840 16 1074528256 -2129653440
            -2147483648 4194304 -1600067294</internalNodes>
          <leafValues>
            -8.9583331346511841e-01 8.2692307233810425e-01</leafValues></_>
        <_>
          <internalNodes>
            0 -1 61 -1056848703 5701633 134217800 553648128 0 8421384
            -2147450752 336175104</internalNodes>
          <leafValues>
            -9.3588858842849731e-01 8.2794362306594849e-01</leafValues></_></weakClassifiers></_>
    <!-- stage 24 -->
    <_>
      <maxWeakCount>2</maxWeakCount>
      <stageThreshold>-1.4481449127197266e-01</stageThreshold>
      <weakClassifiers>
        <_>
          <internalNodes>
            0 -1 49 -2130653137 1073774598 32901 65741 -2147450814
            -805240575 1073758231 33636391</internalNodes>
          <leafValues>
            -9.5402300357818604e-01 7.3451328277587891e-01</leafValues></_>
        <_>
          <internalNodes>
            0 -1 63 -617086683 806355009 0 -2130702128 137 4096
            -2147483487 -1862270966</internalNodes>
          <leafValues>
            -8.7932777404785156e-01 8.3891248703002930e-01</leafValues></_></weakClassifiers></_>
    <!-- stage 25 -->
    <_>
      <maxWeakCount>2</maxWeakCount>
      <stageThreshold>-9.5857656560838223e-04</stageThreshold>
      <weakClassifiers>
        <_>
          <internalNodes>
            0 -1 84 553582591 788459385 -268435458 1056436222 -258
            805273599 -2 184287231</internalNodes>
          <leafValues>
            -7.6363635063171387e-01 9.3333333730697632e-01</leafValues></_>
        <_>
          <internalNodes>
            0 -1 81 -2122301118 4456464 1409351942 1744830465 268443905
            1342177281 8388737 -1600028180</internalNodes>
          <leafValues>
            -9.3429189920425415e-01 8.0544501543045044e-01</leafValues></_></weakClassifiers></_>
    <!-- stage 26 -->
    <_>
      <maxWeakCount>2</maxWeakCount>
      <stageThreshold>-1.7661251127719879e-01</stageThreshold>
      <weakClassifiers>
        <_>
          <internalNodes>
            0 -1 10 134332495 -2147458880 1079017605 -805306224
            -2128461824 -2080374784 537100288 -991952350</internalNodes>
          <leafValues>
            -9.0804594755172729e-01 6.9911503791809082e-01</leafValues></_>
        <_>
          <internalNodes>
            0 -1 17 318771281 -788528303 134283265 276889728 -536837984
            536870944 360448 -532672495</internalNodes>
          <leafValues>
            -8.7572753429412842e-01 7.5006383657455444e-01</leafValues></_></weakClassifiers></_>
    <!-- stage 27 -->
    <_>
      <maxWeakCount>2</maxWeakCount>
      <stageThreshold>-8.1441648304462433e-02</stageThreshold>
      <weakClassifiers>
        <_>
          <internalNodes>
            0 -1 48 -1015809 -65538 -1 -65538 -131201 -524291 -524354
            -150932688</internalNodes>
          <leafValues>
            -7.4074071645736694e-01 8.6956518888473511e-01</leafValues></_>
        <_>
          <internalNodes>
            0 -1 55 268509292 1358956818 8192 -997720063 -2003296256
            -1467998208 33595648 813762561</internalNodes>
          <leafValues>
            -9.5100688934326172e-01 7.5253981351852417e-01</leafValues></_></weakClassifiers></_>
    <!-- stage 28 -->
    <_>
      <maxWeakCount>2</maxWeakCount>
      <stageThreshold>-1.1272089183330536e-01</stageThreshold>
      <weakClassifiers>
        <_>
          <internalNodes>
            0 -1 77 1409417251 -1605197805 268435482 335605777
            -2004746176 805307008 -1995964392 1084375168</internalNodes>
          <leafValues>
            -8.9361703395843506e-01 7.9245281219482422e-01</leafValues></_>
        <_>
          <internalNodes>
            0 -1 32 1073774869 -1877835775 131 1140883456 -1056702141
            671121424 49155 -1610037248</internalNodes>
          <leafValues>
            -9.0517371892929077e-01 7.9070645570755005e-01</leafValues></_></weakClassifiers></_>
    <!-- stage 29 -->
    <_>
      <maxWeakCount>2</maxWeakCount>
      <stageThreshold>1.0146969556808472e-01</stageThreshold>
      <weakClassifiers>
        <_>
          <internalNodes>
            0 -1 30 1073741757 -4227073 -129 -524289 1072529264
            2147450878 -2146478283 -176185344</internalNodes>
          <leafValues>
            -8.0952382087707520e-01 8.9473682641983032e-01</leafValues></_>
        <_>
          <internalNodes>
            0 -1 40 -2147250117 11 272 1358954633 20 -637534205
            -1870626271 -1073512447</internalNodes>
          <leafValues>
            -7.9326713085174561e-01 9.5096296072006226e-01</leafValues></_></weakClassifiers></_>
    <!-- stage 30 -->
    <_>
      <maxWeakCount>2</maxWeakCount>
      <stageThreshold>-1.5428912639617920e-01</stageThreshold>
      <weakClassifiers>
        <_>
          <internalNodes>
            0 -1 8 5525523 -1878523900 67657 25493512 1350566976
            -2143288880 293750818 -402096128</internalNodes>
          <leafValues>
            -9.0804594755172729e-01 6.9911503791809082e-01</leafValues></_>
        <_>
          <internalNodes>
            0 -1 57 -1877896949 268500992 8388609 -1593833208
            -2013232991 1073774592 805306376 163659776</internalNodes>
          <leafValues>
            -8.5340416431427002e-01 8.3166646957397461e-01</leafValues></_></weakClassifiers></_>
    <!-- stage 31 -->
    <_>
      <maxWeakCount>2</maxWeakCount>
      <stageThreshold>-1.5094394981861115e-01</stageThreshold>
      <weakClassifiers>
        <_>
          <internalNodes>
            0 -1 66 1082344915 1048577 805306517 -2147479471 268533762
            -1711276032 33595392 741212161</internalNodes>
          <leafValues>
            -8.6956518888473511e-01 7.4074071645736694e-01</leafValues></_>
        <_>
          <internalNodes>
            0 -1 86 1116230039 1241520384 16433 -2147483648 184549377
            167772160 1084247042 700713226</internalNodes>
          <leafValues>
            -8.9168471097946167e-01 7.7350848913192749e-01</leafValues></_></weakClassifiers></_>
    <!-- stage 32 -->
    <_>
      <maxWeakCount>2</maxWeakCount>
      <stageThreshold>1.2099433690309525e-01</stageThreshold>
      <weakClassifiers>
        <_>
          <internalNodes>
            0 -1 99 -1367347226 -805310596 -6 -197121 65519 2097152
            -2146959359 -1173295101</internalNodes>
          <leafValues>
            -6.9911503791809082e-01 9.0804594755172729e-01</leafValues></_>
        <_>
          <internalNodes>
            0 -1 93 -1040067177 82944 1074856465 1638417 -2130684632
            603996160 -2147464670 -1069416374</internalNodes>
          <leafValues>
            -7.8705161809921265e-01 8.9245969057083130e-01</leafValues></_></weakClassifiers></_>
    <!-- stage 33 -->
    <_>
      <maxWeakCount>2</maxWeakCount>
      <stageThreshold>4.9614407122135162e-02</stageThreshold>
      <weakClassifiers>
        <_>
          <internalNodes>
            0 -1 33 2147286911 -32769 -147457 -1 -32923 -131073
            -302121115 -612896897</internalNodes>
          <leafValues>
            -8.0769228935241699e-01 8.7500000000000000e-01</leafValues></_>
        <_>
          <internalNodes>
            0 -1 18 274793645 21495811 132 -2007760896 536871083
            -1065254909 -230555088 -2101059584</internalNodes>
          <leafValues>
            -8.2538557052612305e-01 8.6386430263519287e-01</leafValues></_></weakClassifiers></_>
    <!-- stage 34 -->
    <_>
      <maxWeakCount>2</maxWeakCount>
      <stageThreshold>-1.5310992300510406e-01</stageThreshold>
      <weakClassifiers>
        <_>
          <internalNodes>
            0 -1 62 -2063506923 1114112 65703 -713031412 134230016
            553648128 -2012725210 -1718329344</internalNodes>
          <leafValues>
            -8.6956518888473511e-01 7.4074071645736694e-01</leafValues></_>
        <_>
          <internalNodes>
            0 -1 79 303092053 -2147474688 65536 562151488 3 1048832
            -1876930560 671531008</internalNodes>
          <leafValues>
            -8.9385068416595459e-01 8.0967402458190918e-01</leafValues></_></weakClassifiers></_>
    <!-- stage 35 -->
    <_>
      <maxWeakCount>2</maxWeakCount>
      <stageThreshold>-1.8676154315471649e-01</stageThreshold>
      <weakClassifiers>
        <_>
          <internalNodes>
            0 -1 73 -1073196797 269500481 16777728 218104320 574619664
            -2012184574 2097408 1883252736</internalNodes>
          <leafValues>
            -9.3258428573608398e-01 7.4774771928787231e-01</leafValues></_>
        <_>
          <internalNodes>
            0 -1 0 -1877999185 -2147221312 -2130706432 129 -2147481568
            -2009071616 142608384 2048919555</internalNodes>
          <leafValues>
            -9.3450927734375000e-01 7.4709171056747437e-01</leafValues></_></weakClassifiers></_>
    <!-- stage 36 -->
    <_>
      <maxWeakCount>2</maxWeakCount>
      <stageThreshold>-7.4117310345172882e-02</stageThreshold>
      <weakClassifiers>
        <_>
          <internalNodes>
            0 -1 45 27 134221840 16777281 0 16812035 142606464 2162693
            -536344566</internalNodes>
          <leafValues>
            -8.5567009449005127e-01 8.0582523345947266e-01</leafValues></_>
        <_>
          <internalNodes>
            0 -1 91 -788201343 16781313 1879113730 -1048526719
            -2147479551 16777216 268501249 148225</internalNodes>
          <leafValues>
            -8.7994253635406494e-01 8.4183907508850098e-01</leafValues></_></weakClassifiers></_>
    <!-- stage 37 -->
    <_>
      <maxWeakCount>2</maxWeakCount>
      <stageThreshold>-9.0876683592796326e-02</stageThreshold>
      <weakClassifiers>
        <_>
          <internalNodes>
            0 -1 8 139355 1073741888 0 -2138472304 65536 3256448
            536870912 -126381950</internalNodes>
          <leafValues>
            -8.6813187599182129e-01 7.2477066516876221e-01</leafValues></_>
        <_>
          <internalNodes>
            0 -1 90 -1054834656 -805306368 65792 -1862270712 -2147434365
            -2147483648 -1878491136 809795584</internalNodes>
          <leafValues>
            -8.1564730405807495e-01 8.4120392799377441e-01</leafValues></_></weakClassifiers></_>
    <!-- stage 38 -->
    <_>
      <maxWeakCount>2</maxWeakCount>
      <stageThreshold>-1.2176012992858887e-01</stageThreshold>
      <weakClassifiers>
        <_>
          <internalNodes>
            0 -1 87 -1811782008 -2063319040 268452160 -2145320928
            1073766528 -2013265920 125837312 941678599</internalNodes>
          <leafValues>
            -9.1011238098144531e-01 7.2972971200942993e-01</leafValues></_>
        <_>
          <internalNodes>
            0 -1 67 -2147434301 1342177284 0 453017600 147472 1078034440
            302123144 815890433</internalNodes>
          <leafValues>
            -8.5148984193801880e-01 8.1520056724548340e-01</leafValues></_></weakClassifiers></_>
    <!-- stage 39 -->
    <_>
      <maxWeakCount>2</maxWeakCount>
      <stageThreshold>-1.1865304410457611e-01</stageThreshold>
      <weakClassifiers>
        <_>
          <internalNodes>
            0 -1 58 -2147302938 17039488 1 151326721 303442 -2142765056
            1073776194 159535107</internalNodes>
          <leafValues>
            -9.0804594755172729e-01 6.9911503791809082e-01</leafValues></_>
        <_>
          <internalNodes>
            0 -1 100 -1055537024 8 1073744010 -2146926334 268435456
            -1593212927 1074798592 -888469503</internalNodes>
          <leafValues>
            -8.1776809692382813e-01 8.8137340545654297e-01</leafValues></_></weakClassifiers></_>
    <!-- stage 40 -->
    <_>
      <maxWeakCount>2</maxWeakCount>
      <stageThreshold>-1.2417042255401611e-01</stageThreshold>
      <weakClassifiers>
        <_>
          <internalNodes>
            0 -1 65 16866561 4198401 16777285 201326593 17 -1333657600
            135069698 -535820287</internalNodes>
          <leafValues>
            -8.9010989665985107e-01 7.4311923980712891e-01</leafValues></_>
        <_>
          <internalNodes>
            0 -1 69 1360659 1879113857 1050688 33793 1376339976 67108928
            -1342144000 1082353733</internalNodes>
          <leafValues>
            -8.6728966236114502e-01 8.4316331148147583e-01</leafValues></_></weakClassifiers></_>
    <!-- stage 41 -->
    <_>
      <maxWeakCount>2</maxWeakCount>
      <stageThreshold>4.4037789106369019e-02</stageThreshold>
      <weakClassifiers>
        <_>
          <internalNodes>
            0 -1 68 1073692535 2147434495 -1073741825 1073610750
            -25207979 -524291 -1073840666 -1074628321</internalNodes>
          <leafValues>
            -7.1171170473098755e-01 8.8764047622680664e-01</leafValues></_>
        <_>
          <internalNodes>
            0 -1 37 -1064943225 1073844224 163906 591876 33562642
            -2147483456 1082265601 -1564343744</internalNodes>
          <leafValues>
            -8.4360265731811523e-01 8.4132069349288940e-01</leafValues></_></weakClassifiers></_>
    <!-- stage 42 -->
    <_>
      <maxWeakCount>2</maxWeakCount>
      <stageThreshold>-1.7705798149108887e-01</stageThreshold>
      <weakClassifiers>
        <_>
          <internalNodes>
            0 -1 88 -2097115011 -1073741824 137 -457162752 67109890
            150994944 134284416 1781006336</internalNodes>
          <leafValues>
            -9.0909093618392944e-01 7.1428573131561279e-01</leafValues></_>
        <_>
          <internalNodes>
            0 -1 1 1493553244 262144 553730437 1107296256 1073750016 0
            -2147418112 4194374</internalNodes>
          <leafValues>
            -8.9134371280670166e-01 7.7217638492584229e-01</leafValues></_></weakClassifiers></_>
    <!-- stage 43 -->
    <_>
      <maxWeakCount>2</maxWeakCount>
      <stageThreshold>-8.3594158291816711e-02</stageThreshold>
      <weakClassifiers>
        <_>
          <internalNodes>
            0 -1 75 100663809 -1996468200 268435457 -1979154175 25166416
            -2147418111 16842776 2381061</internalNodes>
          <leafValues>
            -8.9473682641983032e-01 8.0952382087707520e-01</leafValues></_>
        <_>
          <internalNodes>
            0 -1 82 571605315 4160 -2147417776 -2013200368 805306496
            537395202 704678208 279101994</internalNodes>
          <leafValues>
            -8.7615448236465454e-01 8.1114268302917480e-01</leafValues></_></weakClassifiers></_>
    <!-- stage 44 -->
    <_>
      <maxWeakCount>2</maxWeakCount>
      <stageThreshold>7.1234129369258881e-02</stageThreshold>
      <weakClassifiers>
        <_>
          <internalNodes>
            0 -1 22 1878942225 1073676283 2147483646 2147418107
            2143256437 2147221503 -33001 -1983799760</internalNodes>
          <leafValues>
            -7.8431373834609985e-01 8.1632655858993530e-01</leafValues></_>
        <_>
          <internalNodes>
            0 -1 4 1662205703 1073785411 0 -1040125824 1258438656
            -2147483136 160 -314228672</internalNodes>
          <leafValues>
            -7.4509239196777344e-01 9.5107102394104004e-01</leafValues></_></weakClassifiers></_>
    <!-- stage 45 -->
    <_>
      <maxWeakCount>2</maxWeakCount>
      <stageThreshold>1.2952680885791779e-01</stageThreshold>
      <weakClassifiers>
        <_>
          <internalNodes>
            0 -1 70 -125894828 -1208090625 2147467263 -16908289
            -1073750155 -268566529 2147450877 -1133094947</internalNodes>
          <leafValues>
            -7.0940172672271729e-01 1.</leafValues></_>
        <_>
          <internalNodes>
            0 -1 85 302125057 570621952 16778128 33558528 8 536870912
            -2147483648 -1593147377</internalNodes>
          <leafValues>
            -8.5938954353332520e-01 8.3892852067947388e-01</leafValues></_></weakClassifiers></_>
    <!-- stage 46 -->
    <_>
      <maxWeakCount>2</maxWeakCount>
      <stageThreshold>-2.3336982727050781e-01</stageThreshold>
      <weakClassifiers>
        <_>
          <internalNodes>
            0 -1 78 49680 268959760 16777473 -1878982640 545816841
            -2145255391 -2138566520 196778</internalNodes>
          <leafValues>
            -9.3023258447647095e-01 7.0175439119338989e-01</leafValues></_>
        <_>
          <internalNodes>
            0 -1 52 1610616981 268697600 -2147483248 453509120
            1141375040 209715328 2064 1334411266</internalNodes>
          <leafValues>
            -9.3512421846389771e-01 7.4383932352066040e-01</leafValues></_></weakClassifiers></_>
    <!-- stage 47 -->
    <_>
      <maxWeakCount>2</maxWeakCount>
      <stageThreshold>1.3794061541557312e-01</stageThreshold>
      <weakClassifiers>
        <_>
          <internalNodes>
            0 -1 80 754933502 2113920734 -1 -268451841 1879047807
            -301989889 1073708535 1954477620</internalNodes>
          <leafValues>
            -7.1428573131561279e-01 9.0909093618392944e-01</leafValues></_>
        <_>
          <internalNodes>
            0 -1 64 -1862234092 268697600 8 1 34976 -2004352894
            -1868003189 -1601568639</internalNodes>
          <leafValues>
            -7.7115029096603394e-01 8.7683248519897461e-01</leafValues></_></weakClassifiers></_>
    <!-- stage 48 -->
    <_>
      <maxWeakCount>3</maxWeakCount>
      <stageThreshold>-7.1514648199081421e-01</stageThreshold>
      <weakClassifiers>
        <_>
          <internalNodes>
            0 -1 72 20987915 -922124287 -2147350527 -1006108672
            738476032 1077969920 16897 1476418945</internalNodes>
          <leafValues>
            -8.6813187599182129e-01 7.2477066516876221e-01</leafValues></_>
        <_>
          <internalNodes>
            0 -1 54 -2 -524289 -1 -16842754 -3 2147483645 -3 -927565999</internalNodes>
          <leafValues>
            -7.0482510328292847e-01 9.0171635150909424e-01</leafValues></_>
        <_>
          <internalNodes>
            0 -1 11 -444540928 1351189504 268435778 -452968424
            1074925577 1082130496 -2147450878 1745027226</internalNodes>
          <leafValues>
            -7.7119600772857666e-01 8.5781049728393555e-01</leafValues></_></weakClassifiers></_>
    <!-- stage 49 -->
    <_>
      <maxWeakCount>3</maxWeakCount>
      <stageThreshold>-6.3518995046615601e-01</stageThreshold>
      <weakClassifiers>
        <_>
          <internalNodes>
            0 -1 95 -1342210049 -1342312705 -2 -168394754 2147475454
            -553746433 2011066367 -1934721409</internalNodes>
          <leafValues>
            -6.9369369745254517e-01 8.6516851186752319e-01</leafValues></_>
        <_>
          <internalNodes>
            0 -1 76 -1073639391 -668991488 5137 129 -2138832896
            1756954625 1209040960 -1186920318</internalNodes>
          <leafValues>
            -6.9054496288299561e-01 9.3349963426589966e-01</leafValues></_>
        <_>
          <internalNodes>
            0 -1 96 -2080272000 8454272 67108864 1130752 1411739776
            822149120 1342242885 705875994</internalNodes>
          <leafValues>
            -9.4358551502227783e-01 7.4904870986938477e-01</leafValues></_></weakClassifiers></_>
    <!-- stage 50 -->
    <_>
      <maxWeakCount>2</maxWeakCount>
      <stageThreshold>2.6942389085888863e-02</stageThreshold>
      <weakClassifiers>
        <_>
          <internalNodes>
            0 -1 29 134283269 -1862074352 524288 54526080 276890760
            134549504 0 -2147319807</internalNodes>
          <leafValues>
            -8.9247310161590576e-01 7.7570092678070068e-01</leafValues></_>
        <_>
          <internalNodes>
            0 -1 74 -285214738 2130698239 2130702333 -16912642 -34837
            -168427529 511147866 -579469449</internalNodes>
          <leafValues>
            -7.4875855445861816e-01 9.4924283027648926e-01</leafValues></_></weakClassifiers></_></stages>
  <features>
    <_>
      <rect>
        0 5 5 3</rect></_>
    <_>
      <rect>
        0 6 1 2</rect></_>
    <_>
      <rect>
        0 9 3 2</rect></_>
    <_>
      <rect>
        0 9 3 3</rect></_>
    <_>
      <rect>
        0 10 1 4</rect></_>
    <_>
      <rect>
        0 10 2 2</rect></_>
    <_>
      <rect>
        0 10 2 3</rect></_>
    <_>
      <rect>
        0 10 8 4</rect></_>
    <_>
      <rect>
        0 11 2 2</rect></_>
    <_>
      <rect>
        0 11 2 3</rect></_>
    <_>
      <rect>
        0 12 2 2</rect></_>
    <_>
      <rect>
        0 14 1 1</rect></_>
    <_>
      <rect>
        0 14 2 2</rect></_>
    <_>
      <rect>
        0 14 3 2</rect></_>
    <_>
      <rect>
        0 14 7 3</rect></_>
    <_>
      <rect>
        0 15 2 1</rect></_>
    <_>
      <rect>
        0 15 8 3</rect></_>
    <_>
      <rect>
        1 0 2 2</rect></_>
    <_>
      <rect>
        1 0 3 3</rect></_>
    <_>
      <rect>
        1 0 7 4</rect></_>
    <_>
      <rect>
        1 6 3 5</rect></_>
    <_>
      <rect>
        1 7 4 3</rect></_>
    <_>
      <rect>
        1 8 1 2</rect></_>
    <_>
      <rect>
        1 10 4 2</rect></_>
    <_>
      <rect>
        1 13 2 2</rect></_>
    <_>
      <rect>
        1 13 2 3</rect></_>
    <_>
      <rect>
        1 13 3 3</rect></_>
    <_>
      <rect>
        1 17 3 2</rect></_>
    <_>
      <rect>
        1 17 4 2</rect></_>
    <_>
      <rect>
        2 0 5 3</rect></_>
    <_>
      <rect>
        2 12 3 3</rect></_>
    <_>
      <rect>
        2 12 7 4</rect></_>
    <_>
      <rect>
        2 14 1 1</rect></_>
    <_>
      <rect>
        2 14 2 2</rect></_>
    <_>
      <rect>
        2 15 4 3</rect></_>
    <_>
      <rect>
        2 16 3 2</rect></_>
    <_>
      <rect>
        3 2 2 2</rect></_>
    <_>
      <rect>
        3 5 2 4</rect></_>
    <_>
      <rect>
        3 5 3 5</rect></_>
    <_>
      <rect>
        3 6 7 3</rect></_>
    <_>
      <rect>
        3 7 3 2</rect></_>
    <_>
      <rect>
        3 8 7 5</rect></_>
    <_>
      <rect>
        4 2 6 2</rect></_>
    <_>
      <rect>
        4 3 2 2</rect></_>
    <_>
      <rect>
        4 9 2 3</rect></_>
    <_>
      <rect>
        4 11 3 1</rect></_>
    <_>
      <rect>
        4 15 6 3</rect></_>
    <_>
      <rect>
        5 0 2 2</rect></_>
    <_>
      <rect>
        5 0 2 3</rect></_>
    <_>
      <rect>
        5 8 3 3</rect></_>
    <_>
      <rect>
        5 8 5 5</rect></_>
    <_>
      <rect>
        5 9 2 2</rect></_>
    <_>
      <rect>
        5 9 5 4</rect></_>
    <_>
      <rect>
        5 14 5 3</rect></_>
    <_>
      <rect>
        6 0 3 4</rect></_>
    <_>
      <rect>
        6 0 5 2</rect></_>
    <_>
      <rect>
        6 0 6 8</rect></_>
    <_>
      <rect>
        6 5 4 4</rect></_>
    <_>
      <rect>
        6 6 3 3</rect></_>
    <_>
      <rect>
        6 7 6 4</rect></_>
    <_>
      <rect>
        6 9 3 3</rect></_>
    <_>
      <rect>
        6 12 5 4</rect></_>
    <_>
      <rect>
        6 15 1 1</rect></_>
    <_>
      <rect>
        6 17 6 2</rect></_>
    <_>
      <rect>
        6 21 3 1</rect></_>
    <_>
      <rect>
        7 5 5 1</rect></_>
    <_>
      <rect>
        7 7 3 2</rect></_>
    <_>
      <rect>
        7 8 3 4</rect></_>
    <_>
      <rect>
        7 9 2 4</rect></_>
    <_>
      <rect>
        7 11 3 2</rect></_>
    <_>
      <rect>
        7 21 3 1</rect></_>
    <_>
      <rect>
        8 14 5 3</rect></_>
    <_>
      <rect>
        9 4 3 6</rect></_>
    <_>
      <rect>
        9 5 3 5</rect></_>
    <_>
      <rect>
        10 1 3 1</rect></_>
    <_>
      <rect>
        10 5 3 4</rect></_>
    <_>
      <rect>
        10 13 2 2</rect></_>
    <_>
      <rect>
        11 2 4 2</rect></_>
    <_>
      <rect>
        12 0 4 2</rect></_>
    <_>
      <rect>
        12 7 4 5</rect></_>
    <_>
      <rect>
        12 8 2 3</rect></_>
    <_>
      <rect>
        12 11 4 3</rect></_>
    <_>
      <rect>
        13 4 3 4</rect></_>
    <_>
      <rect>
        13 14 3 3</rect></_>
    <_>
      <rect>
        14 5 3 4</rect></_>
    <_>
      <rect>
        14 7 3 3</rect></_>
    <_>
      <rect>
        14 8 2 2</rect></_>
    <_>
      <rect>
        14 13 3 3</rect></_>
    <_>
      <rect>
        14 14 2 1</rect></_>
    <_>
      <rect>
        14 14 3 3</rect></_>
    <_>
      <rect>
        14 21 1 1</rect></_>
    <_>
      <rect>
        15 0 3 6</rect></_>
    <_>
      <rect>
        15 0 3 7</rect></_>
    <_>
      <rect>
        15 6 3 3</rect></_>
    <_>
      <rect>
        15 9 3 4</rect></_>
    <_>
      <rect>
        16 3 2 3</rect></_>
    <_>
      <rect>
        17 0 2 6</rect></_>
    <_>
      <rect>
        18 1 2 5</rect></_>
    <_>
      <rect>
        18 2 2 3</rect></_>
    <_>
      <rect>
        18 4 1 2</rect></_>
    <_>
      <rect>
        18 14 2 3</rect></_></features></cascade>
</opencv_storage>
