<?xml version="1.0"?>
<opencv_storage>
<cascade>
  <stageType>BOOST</stageType>
  <featureType>HAAR</featureType>
  <height>24</height>
  <width>24</width>
  <stageParams>
    <boostType>GAB</boostType>
    <minHitRate>9.9500000476837158e-01</minHitRate>
    <maxFalseAlarm>1.0000000149011612e-01</maxFalseAlarm>
    <weightTrimRate>9.4999998807907104e-01</weightTrimRate>
    <maxDepth>1</maxDepth>
    <maxWeakCount>100</maxWeakCount></stageParams>
  <featureParams>
    <maxCatCount>0</maxCatCount>
    <featSize>1</featSize>
    <mode>BASIC</mode></featureParams>
  <stageNum>16</stageNum>
  <stages>
    <!-- stage 0 -->
    <_>
      <maxWeakCount>11</maxWeakCount>
      <stageThreshold>-7.3198658227920532e-01</stageThreshold>
      <weakClassifiers>
        <_>
          <internalNodes>
            0 -1 11 -7.4065640568733215e-02</internalNodes>
          <leafValues>
            7.3563218116760254e-01 -6.9938647747039795e-01</leafValues></_>
        <_>
          <internalNodes>
            0 -1 98 -2.7843378484249115e-02</internalNodes>
          <leafValues>
            6.1882805824279785e-01 -5.9475839138031006e-01</leafValues></_>
        <_>
          <internalNodes>
            0 -1 92 2.0673247054219246e-03</internalNodes>
          <leafValues>
            -5.3276085853576660e-01 5.0401157140731812e-01</leafValues></_>
        <_>
          <internalNodes>
            0 -1 197 -5.8656046167016029e-04</internalNodes>
          <leafValues>
            -9.5892250537872314e-01 2.5371855497360229e-01</leafValues></_>
        <_>
          <internalNodes>
            0 -1 197 5.1420531235635281e-04</internalNodes>
          <leafValues>
            2.5847217440605164e-01 -8.9082437753677368e-01</leafValues></_>
        <_>
          <internalNodes>
            0 -1 222 2.7071872726082802e-02</internalNodes>
          <leafValues>
            -3.0051183700561523e-01 8.4924262762069702e-01</leafValues></_>
        <_>
          <internalNodes>
            0 -1 131 -3.5033762454986572e-02</internalNodes>
          <leafValues>
            5.5736315250396729e-01 -4.2919218540191650e-01</leafValues></_>
        <_>
          <internalNodes>
            0 -1 181 4.7210685908794403e-02</internalNodes>
          <leafValues>
            -2.6779735088348389e-01 8.2758927345275879e-01</leafValues></_>
        <_>
          <internalNodes>
            0 -1 95 -2.9425523243844509e-03</internalNodes>
          <leafValues>
            5.6062299013137817e-01 -3.8902148604393005e-01</leafValues></_>
        <_>
          <internalNodes>
            0 -1 86 -4.2483814060688019e-02</internalNodes>
          <leafValues>
            8.9890199899673462e-01 -3.0462250113487244e-01</leafValues></_>
        <_>
          <internalNodes>
            0 -1 195 1.7579121049493551e-03</internalNodes>
          <leafValues>
            3.3767402172088623e-01 -8.9455467462539673e-01</leafValues></_></weakClassifiers></_>
    <!-- stage 1 -->
    <_>
      <maxWeakCount>16</maxWeakCount>
      <stageThreshold>-6.5259760618209839e-01</stageThreshold>
      <weakClassifiers>
        <_>
          <internalNodes>
            0 -1 9 -1.2582680583000183e-01</internalNodes>
          <leafValues>
            5.6976741552352905e-01 -6.0365855693817139e-01</leafValues></_>
        <_>
          <internalNodes>
            0 -1 196 -1.0970005765557289e-02</internalNodes>
          <leafValues>
            -6.7906522750854492e-01 3.4549808502197266e-01</leafValues></_>
        <_>
          <internalNodes>
            0 -1 207 6.9874495267868042e-02</internalNodes>
          <leafValues>
            -3.2601141929626465e-01 7.1866542100906372e-01</leafValues></_>
        <_>
          <internalNodes>
            0 -1 198 -2.5444236234761775e-04</internalNodes>
          <leafValues>
            4.6839776635169983e-01 -3.2435458898544312e-01</leafValues></_>
        <_>
          <internalNodes>
            0 -1 205 1.5507514588534832e-02</internalNodes>
          <leafValues>
            -2.7017766237258911e-01 5.6594663858413696e-01</leafValues></_>
        <_>
          <internalNodes>
            0 -1 233 -1.1913377791643143e-02</internalNodes>
          <leafValues>
            6.5867638587951660e-01 -2.2576358914375305e-01</leafValues></_>
        <_>
          <internalNodes>
            0 -1 13 -3.1899649184197187e-03</internalNodes>
          <leafValues>
            4.4490733742713928e-01 -3.4490957856178284e-01</leafValues></_>
        <_>
          <internalNodes>
            0 -1 115 -7.6259248889982700e-03</internalNodes>
          <leafValues>
            5.1364511251449585e-01 -3.0596563220024109e-01</leafValues></_>
        <_>
          <internalNodes>
            0 -1 210 -2.0721890032291412e-02</internalNodes>
          <leafValues>
            -4.9660074710845947e-01 3.7427768111228943e-01</leafValues></_>
        <_>
          <internalNodes>
            0 -1 212 -2.2423859685659409e-02</internalNodes>
          <leafValues>
            7.5015753507614136e-01 -2.1960462629795074e-01</leafValues></_>
        <_>
          <internalNodes>
            0 -1 129 4.8062466084957123e-02</internalNodes>
          <leafValues>
            -2.6135459542274475e-01 6.5248781442642212e-01</leafValues></_>
        <_>
          <internalNodes>
            0 -1 114 4.9295060336589813e-02</internalNodes>
          <leafValues>
            -2.6020935177803040e-01 5.9076207876205444e-01</leafValues></_>
        <_>
          <internalNodes>
            0 -1 164 5.4619368165731430e-03</internalNodes>
          <leafValues>
            2.3681360483169556e-01 -8.1941640377044678e-01</leafValues></_>
        <_>
          <internalNodes>
            0 -1 3 -1.7416982445865870e-03</internalNodes>
          <leafValues>
            4.0780466794967651e-01 -3.9909678697586060e-01</leafValues></_>
        <_>
          <internalNodes>
            0 -1 151 -8.3222473040223122e-04</internalNodes>
          <leafValues>
            5.0241023302078247e-01 -3.3171308040618896e-01</leafValues></_>
        <_>
          <internalNodes>
            0 -1 70 -2.3657958954572678e-02</internalNodes>
          <leafValues>
            6.3115584850311279e-01 -2.4994844198226929e-01</leafValues></_></weakClassifiers></_>
    <!-- stage 2 -->
    <_>
      <maxWeakCount>19</maxWeakCount>
      <stageThreshold>-5.2156847715377808e-01</stageThreshold>
      <weakClassifiers>
        <_>
          <internalNodes>
            0 -1 5 -5.0485335290431976e-02</internalNodes>
          <leafValues>
            4.7239264845848083e-01 -5.2522253990173340e-01</leafValues></_>
        <_>
          <internalNodes>
            0 -1 2 -2.7405902743339539e-01</internalNodes>
          <leafValues>
            1.8079729378223419e-01 -7.8187972307205200e-01</leafValues></_>
        <_>
          <internalNodes>
            0 -1 202 1.1714003980159760e-01</internalNodes>
          <leafValues>
            -2.8681606054306030e-01 6.3908106088638306e-01</leafValues></_>
        <_>
          <internalNodes>
            0 -1 240 -6.3990894705057144e-03</internalNodes>
          <leafValues>
            -6.0625505447387695e-01 2.9924273490905762e-01</leafValues></_>
        <_>
          <internalNodes>
            0 -1 169 -1.4632566599175334e-03</internalNodes>
          <leafValues>
            5.8308231830596924e-01 -2.8388884663581848e-01</leafValues></_>
        <_>
          <internalNodes>
            0 -1 40 8.6503028869628906e-03</internalNodes>
          <leafValues>
            -2.7820289134979248e-01 4.3428322672843933e-01</leafValues></_>
        <_>
          <internalNodes>
            0 -1 133 -5.8807636378332973e-04</internalNodes>
          <leafValues>
            2.9443621635437012e-01 -4.2411181330680847e-01</leafValues></_>
        <_>
          <internalNodes>
            0 -1 112 -8.3842193707823753e-03</internalNodes>
          <leafValues>
            2.9366996884346008e-01 -4.3988624215126038e-01</leafValues></_>
        <_>
          <internalNodes>
            0 -1 228 -8.8304723612964153e-04</internalNodes>
          <leafValues>
            5.7778680324554443e-01 -2.2069770097732544e-01</leafValues></_>
        <_>
          <internalNodes>
            0 -1 245 -1.1886749416589737e-04</internalNodes>
          <leafValues>
            4.2315486073493958e-01 -3.3661657571792603e-01</leafValues></_>
        <_>
          <internalNodes>
            0 -1 140 5.4249470122158527e-04</internalNodes>
          <leafValues>
            -2.1987408399581909e-01 5.4828906059265137e-01</leafValues></_>
        <_>
          <internalNodes>
            0 -1 220 -6.4516360871493816e-03</internalNodes>
          <leafValues>
            7.4703395366668701e-01 -2.0078723132610321e-01</leafValues></_>
        <_>
          <internalNodes>
            0 -1 89 2.5161347002722323e-04</internalNodes>
          <leafValues>
            3.0328068137168884e-01 -5.1025432348251343e-01</leafValues></_>
        <_>
          <internalNodes>
            0 -1 152 -1.0248864069581032e-02</internalNodes>
          <leafValues>
            6.3190460205078125e-01 -2.3445177078247070e-01</leafValues></_>
        <_>
          <internalNodes>
            0 -1 67 1.6105201211757958e-04</internalNodes>
          <leafValues>
            -2.7317783236503601e-01 4.6839797496795654e-01</leafValues></_>
        <_>
          <internalNodes>
            0 -1 107 6.2690651975572109e-03</internalNodes>
          <leafValues>
            2.3922358453273773e-01 -5.7074993848800659e-01</leafValues></_>
        <_>
          <internalNodes>
            0 -1 22 -1.6198836965486407e-03</internalNodes>
          <leafValues>
            4.3058666586875916e-01 -3.0094715952873230e-01</leafValues></_>
        <_>
          <internalNodes>
            0 -1 57 4.4797486625611782e-03</internalNodes>
          <leafValues>
            2.0752328634262085e-01 -7.6767128705978394e-01</leafValues></_>
        <_>
          <internalNodes>
            0 -1 163 2.6029585860669613e-03</internalNodes>
          <leafValues>
            1.2117497622966766e-01 -9.2282342910766602e-01</leafValues></_></weakClassifiers></_>
    <!-- stage 3 -->
    <_>
      <maxWeakCount>17</maxWeakCount>
      <stageThreshold>-6.0406959056854248e-01</stageThreshold>
      <weakClassifiers>
        <_>
          <internalNodes>
            0 -1 215 9.5017522573471069e-02</internalNodes>
          <leafValues>
            -4.3617022037506104e-01 5.1612901687622070e-01</leafValues></_>
        <_>
          <internalNodes>
            0 -1 44 3.9582354947924614e-03</internalNodes>
          <leafValues>
            -3.5882288217544556e-01 4.5287856459617615e-01</leafValues></_>
        <_>
          <internalNodes>
            0 -1 101 -1.0140445083379745e-02</internalNodes>
          <leafValues>
            5.0167065858840942e-01 -2.8918334841728210e-01</leafValues></_>
        <_>
          <internalNodes>
            0 -1 258 -7.3438358958810568e-04</internalNodes>
          <leafValues>
            6.0200375318527222e-01 -2.4874059855937958e-01</leafValues></_>
        <_>
          <internalNodes>
            0 -1 199 3.0807370785623789e-03</internalNodes>
          <leafValues>
            -1.7401747405529022e-01 7.3632353544235229e-01</leafValues></_>
        <_>
          <internalNodes>
            0 -1 54 -7.1688983589410782e-03</internalNodes>
          <leafValues>
            -4.9093621969223022e-01 2.8768295049667358e-01</leafValues></_>
        <_>
          <internalNodes>
            0 -1 186 9.1070253401994705e-03</internalNodes>
          <leafValues>
            -2.5241404771804810e-01 6.2974035739898682e-01</leafValues></_>
        <_>
          <internalNodes>
            0 -1 255 -3.7902048788964748e-03</internalNodes>
          <leafValues>
            7.6444947719573975e-01 -1.8156239390373230e-01</leafValues></_>
        <_>
          <internalNodes>
            0 -1 254 -1.2378399260342121e-03</internalNodes>
          <leafValues>
            5.5430907011032104e-01 -2.4466195702552795e-01</leafValues></_>
        <_>
          <internalNodes>
            0 -1 60 5.2459829021245241e-04</internalNodes>
          <leafValues>
            -3.5228693485260010e-01 4.3810185790061951e-01</leafValues></_>
        <_>
          <internalNodes>
            0 -1 246 -9.2711998149752617e-04</internalNodes>
          <leafValues>
            6.4902007579803467e-01 -2.4498142302036285e-01</leafValues></_>
        <_>
          <internalNodes>
            0 -1 121 -6.6020409576594830e-04</internalNodes>
          <leafValues>
            3.7645912170410156e-01 -4.0710428357124329e-01</leafValues></_>
        <_>
          <internalNodes>
            0 -1 21 1.3824585825204849e-02</internalNodes>
          <leafValues>
            1.6697250306606293e-01 -7.9191601276397705e-01</leafValues></_>
        <_>
          <internalNodes>
            0 -1 250 2.8781173750758171e-03</internalNodes>
          <leafValues>
            -2.5149112939834595e-01 6.5559726953506470e-01</leafValues></_>
        <_>
          <internalNodes>
            0 -1 94 -7.9070657491683960e-02</internalNodes>
          <leafValues>
            3.0938959121704102e-01 -5.1716887950897217e-01</leafValues></_>
        <_>
          <internalNodes>
            0 -1 127 1.3883491046726704e-03</internalNodes>
          <leafValues>
            -2.4697290360927582e-01 7.3283416032791138e-01</leafValues></_>
        <_>
          <internalNodes>
            0 -1 249 -8.0456752330064774e-03</internalNodes>
          <leafValues>
            9.3511271476745605e-01 -1.4804646372795105e-01</leafValues></_></weakClassifiers></_>
    <!-- stage 4 -->
    <_>
      <maxWeakCount>15</maxWeakCount>
      <stageThreshold>-5.5632728338241577e-01</stageThreshold>
      <weakClassifiers>
        <_>
          <internalNodes>
            0 -1 38 -2.6810042560100555e-02</internalNodes>
          <leafValues>
            2.5892856717109680e-01 -5.7246375083923340e-01</leafValues></_>
        <_>
          <internalNodes>
            0 -1 213 -4.5256081968545914e-02</internalNodes>
          <leafValues>
            -7.7807569503784180e-01 1.5051349997520447e-01</leafValues></_>
        <_>
          <internalNodes>
            0 -1 179 -8.0985203385353088e-03</internalNodes>
          <leafValues>
            3.2480022311210632e-01 -5.1640480756759644e-01</leafValues></_>
        <_>
          <internalNodes>
            0 -1 15 -1.0721919126808643e-02</internalNodes>
          <leafValues>
            6.1596757173538208e-01 -2.5653630495071411e-01</leafValues></_>
        <_>
          <internalNodes>
            0 -1 124 -2.3314421996474266e-03</internalNodes>
          <leafValues>
            -6.8502330780029297e-01 2.0428344607353210e-01</leafValues></_>
        <_>
          <internalNodes>
            0 -1 66 -9.4775634352117777e-04</internalNodes>
          <leafValues>
            6.8679112195968628e-01 -2.0612788200378418e-01</leafValues></_>
        <_>
          <internalNodes>
            0 -1 170 -6.1364765278995037e-03</internalNodes>
          <leafValues>
            8.7019461393356323e-01 -2.2419714927673340e-01</leafValues></_>
        <_>
          <internalNodes>
            0 -1 29 -8.8851125910878181e-03</internalNodes>
          <leafValues>
            2.6613107323646545e-01 -7.8292739391326904e-01</leafValues></_>
        <_>
          <internalNodes>
            0 -1 77 -1.5502342581748962e-01</internalNodes>
          <leafValues>
            -7.4517238140106201e-01 2.5658020377159119e-01</leafValues></_>
        <_>
          <internalNodes>
            0 -1 81 -9.7055910155177116e-03</internalNodes>
          <leafValues>
            8.0097782611846924e-01 -2.3648791015148163e-01</leafValues></_>
        <_>
          <internalNodes>
            0 -1 97 5.6245480664074421e-04</internalNodes>
          <leafValues>
            -3.4764114022254944e-01 4.8493957519531250e-01</leafValues></_>
        <_>
          <internalNodes>
            0 -1 158 -8.3773704245686531e-03</internalNodes>
          <leafValues>
            -8.4613341093063354e-01 1.9803771376609802e-01</leafValues></_>
        <_>
          <internalNodes>
            0 -1 64 7.1283136494457722e-03</internalNodes>
          <leafValues>
            -3.6030524969100952e-01 4.5957282185554504e-01</leafValues></_>
        <_>
          <internalNodes>
            0 -1 65 -6.5826403442770243e-04</internalNodes>
          <leafValues>
            7.2108083963394165e-01 -2.1295635402202606e-01</leafValues></_>
        <_>
          <internalNodes>
            0 -1 48 2.6380352675914764e-02</internalNodes>
          <leafValues>
            -1.8927837908267975e-01 7.7176457643508911e-01</leafValues></_></weakClassifiers></_>
    <!-- stage 5 -->
    <_>
      <maxWeakCount>14</maxWeakCount>
      <stageThreshold>-8.1796115636825562e-01</stageThreshold>
      <weakClassifiers>
        <_>
          <internalNodes>
            0 -1 32 -1.4171567745506763e-03</internalNodes>
          <leafValues>
            4.4086021184921265e-01 -5.7961785793304443e-01</leafValues></_>
        <_>
          <internalNodes>
            0 -1 43 4.6631917357444763e-03</internalNodes>
          <leafValues>
            -3.9886862039566040e-01 5.7774823904037476e-01</leafValues></_>
        <_>
          <internalNodes>
            0 -1 12 -1.1142138391733170e-02</internalNodes>
          <leafValues>
            7.0225286483764648e-01 -2.7486532926559448e-01</leafValues></_>
        <_>
          <internalNodes>
            0 -1 85 -1.4198778197169304e-02</internalNodes>
          <leafValues>
            5.3946584463119507e-01 -4.0469717979431152e-01</leafValues></_>
        <_>
          <internalNodes>
            0 -1 59 -7.3720014188438654e-04</internalNodes>
          <leafValues>
            4.4014197587966919e-01 -4.0382093191146851e-01</leafValues></_>
        <_>
          <internalNodes>
            0 -1 143 -1.1594856623560190e-03</internalNodes>
          <leafValues>
            5.1778656244277954e-01 -3.6194720864295959e-01</leafValues></_>
        <_>
          <internalNodes>
            0 -1 227 -6.7494867835193872e-04</internalNodes>
          <leafValues>
            6.5444654226303101e-01 -2.9675158858299255e-01</leafValues></_>
        <_>
          <internalNodes>
            0 -1 170 1.8730973824858665e-03</internalNodes>
          <leafValues>
            -2.7207961678504944e-01 6.8320232629776001e-01</leafValues></_>
        <_>
          <internalNodes>
            0 -1 209 1.8100943416357040e-03</internalNodes>
          <leafValues>
            3.1081295013427734e-01 -8.1249082088470459e-01</leafValues></_>
        <_>
          <internalNodes>
            0 -1 234 -2.4172238772735000e-04</internalNodes>
          <leafValues>
            5.9493952989578247e-01 -3.4559118747711182e-01</leafValues></_>
        <_>
          <internalNodes>
            0 -1 105 1.5969136729836464e-03</internalNodes>
          <leafValues>
            3.3817607164382935e-01 -5.6675434112548828e-01</leafValues></_>
        <_>
          <internalNodes>
            0 -1 218 -5.8478288352489471e-02</internalNodes>
          <leafValues>
            8.6694574356079102e-01 -2.1235893666744232e-01</leafValues></_>
        <_>
          <internalNodes>
            0 -1 230 -4.9517867155373096e-03</internalNodes>
          <leafValues>
            -6.9276428222656250e-01 2.5143250823020935e-01</leafValues></_>
        <_>
          <internalNodes>
            0 -1 137 -3.0596266151405871e-04</internalNodes>
          <leafValues>
            -5.8407497406005859e-01 2.8065845370292664e-01</leafValues></_></weakClassifiers></_>
    <!-- stage 6 -->
    <_>
      <maxWeakCount>15</maxWeakCount>
      <stageThreshold>-1.0176687240600586e+00</stageThreshold>
      <weakClassifiers>
        <_>
          <internalNodes>
            0 -1 28 -1.1615345720201731e-03</internalNodes>
          <leafValues>
            3.5426008701324463e-01 -6.4620935916900635e-01</leafValues></_>
        <_>
          <internalNodes>
            0 -1 201 2.7432302013039589e-02</internalNodes>
          <leafValues>
            -3.7836170196533203e-01 5.8987832069396973e-01</leafValues></_>
        <_>
          <internalNodes>
            0 -1 91 -9.9996272474527359e-03</internalNodes>
          <leafValues>
            -8.1091368198394775e-01 2.4509108066558838e-01</leafValues></_>
        <_>
          <internalNodes>
            0 -1 166 4.8843091353774071e-03</internalNodes>
          <leafValues>
            3.3755594491958618e-01 -6.0440379381179810e-01</leafValues></_>
        <_>
          <internalNodes>
            0 -1 160 -6.3144057057797909e-03</internalNodes>
          <leafValues>
            7.7593988180160522e-01 -3.1492343544960022e-01</leafValues></_>
        <_>
          <internalNodes>
            0 -1 25 -8.2676643505692482e-03</internalNodes>
          <leafValues>
            -8.0885988473892212e-01 2.7067592740058899e-01</leafValues></_>
        <_>
          <internalNodes>
            0 -1 20 9.0112676844000816e-04</internalNodes>
          <leafValues>
            -3.1425845623016357e-01 6.5075212717056274e-01</leafValues></_>
        <_>
          <internalNodes>
            0 -1 175 -3.9990492950892076e-05</internalNodes>
          <leafValues>
            4.5764428377151489e-01 -4.9498414993286133e-01</leafValues></_>
        <_>
          <internalNodes>
            0 -1 10 -3.4170448780059814e-02</internalNodes>
          <leafValues>
            7.4639886617660522e-01 -2.2810205817222595e-01</leafValues></_>
        <_>
          <internalNodes>
            0 -1 178 4.0222771465778351e-02</internalNodes>
          <leafValues>
            -2.4509420990943909e-01 7.0958119630813599e-01</leafValues></_>
        <_>
          <internalNodes>
            0 -1 251 -8.2953902892768383e-04</internalNodes>
          <leafValues>
            6.5749627351760864e-01 -2.5617423653602600e-01</leafValues></_>
        <_>
          <internalNodes>
            0 -1 80 -5.8737426996231079e-02</internalNodes>
          <leafValues>
            -4.4048529863357544e-01 3.6207440495491028e-01</leafValues></_>
        <_>
          <internalNodes>
            0 -1 139 1.6600669187027961e-04</internalNodes>
          <leafValues>
            2.7455869317054749e-01 -6.8303990364074707e-01</leafValues></_>
        <_>
          <internalNodes>
            0 -1 63 -1.9574542529881001e-03</internalNodes>
          <leafValues>
            5.6806850433349609e-01 -3.1224700808525085e-01</leafValues></_>
        <_>
          <internalNodes>
            0 -1 33 8.7638990953564644e-04</internalNodes>
          <leafValues>
            3.6805817484855652e-01 -4.8588922619819641e-01</leafValues></_></weakClassifiers></_>
    <!-- stage 7 -->
    <_>
      <maxWeakCount>18</maxWeakCount>
      <stageThreshold>-7.2262895107269287e-01</stageThreshold>
      <weakClassifiers>
        <_>
          <internalNodes>
            0 -1 24 -1.6116108745336533e-02</internalNodes>
          <leafValues>
            3.8728323578834534e-01 -5.1070338487625122e-01</leafValues></_>
        <_>
          <internalNodes>
            0 -1 0 -1.1245342902839184e-02</internalNodes>
          <leafValues>
            6.3859081268310547e-01 -2.8011310100555420e-01</leafValues></_>
        <_>
          <internalNodes>
            0 -1 90 -6.4619011245667934e-03</internalNodes>
          <leafValues>
            -9.6922028064727783e-01 1.4265808463096619e-01</leafValues></_>
        <_>
          <internalNodes>
            0 -1 116 -8.4657710976898670e-04</internalNodes>
          <leafValues>
            3.6013540625572205e-01 -4.5939362049102783e-01</leafValues></_>
        <_>
          <internalNodes>
            0 -1 159 1.1175784748047590e-03</internalNodes>
          <leafValues>
            1.5704534947872162e-01 -7.0005947351455688e-01</leafValues></_>
        <_>
          <internalNodes>
            0 -1 135 1.2320426758378744e-03</internalNodes>
          <leafValues>
            2.7403122186660767e-01 -5.0694578886032104e-01</leafValues></_>
        <_>
          <internalNodes>
            0 -1 42 -1.2987329391762614e-03</internalNodes>
          <leafValues>
            7.4448215961456299e-01 -2.3022374510765076e-01</leafValues></_>
        <_>
          <internalNodes>
            0 -1 185 -4.2213255073875189e-04</internalNodes>
          <leafValues>
            4.9949288368225098e-01 -3.0211409926414490e-01</leafValues></_>
        <_>
          <internalNodes>
            0 -1 188 -2.4114588741213083e-03</internalNodes>
          <leafValues>
            6.2567144632339478e-01 -2.0117509365081787e-01</leafValues></_>
        <_>
          <internalNodes>
            0 -1 4 -1.8402231857180595e-02</internalNodes>
          <leafValues>
            7.6990354061126709e-01 -1.9156152009963989e-01</leafValues></_>
        <_>
          <internalNodes>
            0 -1 184 8.7722530588507652e-04</internalNodes>
          <leafValues>
            1.7263220250606537e-01 -8.9951968193054199e-01</leafValues></_>
        <_>
          <internalNodes>
            0 -1 79 2.2241473197937012e-03</internalNodes>
          <leafValues>
            -1.8637113273143768e-01 8.7147694826126099e-01</leafValues></_>
        <_>
          <internalNodes>
            0 -1 119 -7.4384221807122231e-03</internalNodes>
          <leafValues>
            -9.4710683822631836e-01 1.7482344806194305e-01</leafValues></_>
        <_>
          <internalNodes>
            0 -1 88 3.0209403485059738e-03</internalNodes>
          <leafValues>
            2.3201525211334229e-01 -5.3961151838302612e-01</leafValues></_>
        <_>
          <internalNodes>
            0 -1 247 -6.3849176513031125e-05</internalNodes>
          <leafValues>
            3.5709363222122192e-01 -3.7145599722862244e-01</leafValues></_>
        <_>
          <internalNodes>
            0 -1 122 -2.3351029958575964e-03</internalNodes>
          <leafValues>
            -6.4120018482208252e-01 2.3070739209651947e-01</leafValues></_>
        <_>
          <internalNodes>
            0 -1 23 -1.6592270694673061e-03</internalNodes>
          <leafValues>
            4.3663945794105530e-01 -3.1352925300598145e-01</leafValues></_>
        <_>
          <internalNodes>
            0 -1 113 -4.9160318449139595e-03</internalNodes>
          <leafValues>
            4.1050308942794800e-01 -3.5938024520874023e-01</leafValues></_></weakClassifiers></_>
    <!-- stage 8 -->
    <_>
      <maxWeakCount>17</maxWeakCount>
      <stageThreshold>-4.9202537536621094e-01</stageThreshold>
      <weakClassifiers>
        <_>
          <internalNodes>
            0 -1 173 1.3377928733825684e-01</internalNodes>
          <leafValues>
            -5.4782611131668091e-01 5.7419353723526001e-01</leafValues></_>
        <_>
          <internalNodes>
            0 -1 108 -1.2815943919122219e-02</internalNodes>
          <leafValues>
            -7.0814001560211182e-01 2.8693476319313049e-01</leafValues></_>
        <_>
          <internalNodes>
            0 -1 56 -1.8811067566275597e-03</internalNodes>
          <leafValues>
            -6.0553729534149170e-01 2.5617206096649170e-01</leafValues></_>
        <_>
          <internalNodes>
            0 -1 51 -1.7459267983213067e-03</internalNodes>
          <leafValues>
            3.5400328040122986e-01 -4.2479562759399414e-01</leafValues></_>
        <_>
          <internalNodes>
            0 -1 18 5.3311519324779510e-02</internalNodes>
          <leafValues>
            -1.8184731900691986e-01 9.0882867574691772e-01</leafValues></_>
        <_>
          <internalNodes>
            0 -1 6 -3.0120255425572395e-02</internalNodes>
          <leafValues>
            6.2525033950805664e-01 -1.7889651656150818e-01</leafValues></_>
        <_>
          <internalNodes>
            0 -1 248 7.8346850350499153e-03</internalNodes>
          <leafValues>
            -2.0207123458385468e-01 6.0062503814697266e-01</leafValues></_>
        <_>
          <internalNodes>
            0 -1 74 -5.8793704956769943e-03</internalNodes>
          <leafValues>
            -6.6993206739425659e-01 2.1912024915218353e-01</leafValues></_>
        <_>
          <internalNodes>
            0 -1 30 -5.9472233988344669e-04</internalNodes>
          <leafValues>
            3.2615295052528381e-01 -4.2449772357940674e-01</leafValues></_>
        <_>
          <internalNodes>
            0 -1 35 -1.8895577639341354e-02</internalNodes>
          <leafValues>
            -9.2223531007766724e-01 1.6807618737220764e-01</leafValues></_>
        <_>
          <internalNodes>
            0 -1 190 -8.7445065379142761e-02</internalNodes>
          <leafValues>
            1. -1.7174251377582550e-01</leafValues></_>
        <_>
          <internalNodes>
            0 -1 123 1.1739804409444332e-02</internalNodes>
          <leafValues>
            2.9080447554588318e-01 -4.7654137015342712e-01</leafValues></_>
        <_>
          <internalNodes>
            0 -1 62 -5.5230446159839630e-03</internalNodes>
          <leafValues>
            -9.0097028017044067e-01 1.5002307295799255e-01</leafValues></_>
        <_>
          <internalNodes>
            0 -1 192 -9.5455208793282509e-03</internalNodes>
          <leafValues>
            -3.1302690505981445e-01 4.3948388099670410e-01</leafValues></_>
        <_>
          <internalNodes>
            0 -1 257 -8.9572388678789139e-03</internalNodes>
          <leafValues>
            2.2652885317802429e-01 -6.7774677276611328e-01</leafValues></_>
        <_>
          <internalNodes>
            0 -1 148 5.7383170351386070e-03</internalNodes>
          <leafValues>
            1.1922074109315872e-01 -8.5993719100952148e-01</leafValues></_>
        <_>
          <internalNodes>
            0 -1 177 -2.2263894788920879e-03</internalNodes>
          <leafValues>
            6.5737402439117432e-01 -2.6063546538352966e-01</leafValues></_></weakClassifiers></_>
    <!-- stage 9 -->
    <_>
      <maxWeakCount>15</maxWeakCount>
      <stageThreshold>-4.8560142517089844e-01</stageThreshold>
      <weakClassifiers>
        <_>
          <internalNodes>
            0 -1 84 -1.1506950855255127e-01</internalNodes>
          <leafValues>
            3.2793521881103516e-01 -7.1541500091552734e-01</leafValues></_>
        <_>
          <internalNodes>
            0 -1 136 2.3156898096203804e-03</internalNodes>
          <leafValues>
            3.4577926993370056e-01 -6.0972291231155396e-01</leafValues></_>
        <_>
          <internalNodes>
            0 -1 206 -1.0928599536418915e-01</internalNodes>
          <leafValues>
            -3.0588519573211670e-01 5.7756465673446655e-01</leafValues></_>
        <_>
          <internalNodes>
            0 -1 109 -1.3970119878649712e-02</internalNodes>
          <leafValues>
            -8.9405322074890137e-01 1.7811751365661621e-01</leafValues></_>
        <_>
          <internalNodes>
            0 -1 83 -7.7107078395783901e-03</internalNodes>
          <leafValues>
            6.5897345542907715e-01 -2.3882271349430084e-01</leafValues></_>
        <_>
          <internalNodes>
            0 -1 1 8.5954025387763977e-02</internalNodes>
          <leafValues>
            -2.0082205533981323e-01 8.4538185596466064e-01</leafValues></_>
        <_>
          <internalNodes>
            0 -1 46 -1.6924651339650154e-02</internalNodes>
          <leafValues>
            8.1925976276397705e-01 -1.6325668990612030e-01</leafValues></_>
        <_>
          <internalNodes>
            0 -1 142 -5.2867713384330273e-04</internalNodes>
          <leafValues>
            6.7986774444580078e-01 -2.0945902168750763e-01</leafValues></_>
        <_>
          <internalNodes>
            0 -1 99 -5.9611298143863678e-02</internalNodes>
          <leafValues>
            6.1788254976272583e-01 -2.3912851512432098e-01</leafValues></_>
        <_>
          <internalNodes>
            0 -1 34 -9.6071540610864758e-04</internalNodes>
          <leafValues>
            3.9199110865592957e-01 -4.2110282182693481e-01</leafValues></_>
        <_>
          <internalNodes>
            0 -1 104 -2.4412330240011215e-03</internalNodes>
          <leafValues>
            -5.2492046356201172e-01 2.6918476819992065e-01</leafValues></_>
        <_>
          <internalNodes>
            0 -1 146 2.2455253638327122e-03</internalNodes>
          <leafValues>
            1.8956191837787628e-01 -8.8918942213058472e-01</leafValues></_>
        <_>
          <internalNodes>
            0 -1 45 -7.6210279075894505e-05</internalNodes>
          <leafValues>
            3.6315402388572693e-01 -4.2895814776420593e-01</leafValues></_>
        <_>
          <internalNodes>
            0 -1 125 -3.0270492061390541e-05</internalNodes>
          <leafValues>
            2.8958225250244141e-01 -5.1847410202026367e-01</leafValues></_>
        <_>
          <internalNodes>
            0 -1 157 -1.5135157809709199e-05</internalNodes>
          <leafValues>
            3.2836464047431946e-01 -4.2630591988563538e-01</leafValues></_></weakClassifiers></_>
    <!-- stage 10 -->
    <_>
      <maxWeakCount>16</maxWeakCount>
      <stageThreshold>-5.1101404428482056e-01</stageThreshold>
      <weakClassifiers>
        <_>
          <internalNodes>
            0 -1 17 -1.2199482321739197e-01</internalNodes>
          <leafValues>
            6.4615386724472046e-01 -4.9729728698730469e-01</leafValues></_>
        <_>
          <internalNodes>
            0 -1 226 1.2266173725947738e-03</internalNodes>
          <leafValues>
            -3.1738510727882385e-01 5.5102533102035522e-01</leafValues></_>
        <_>
          <internalNodes>
            0 -1 26 6.2734866514801979e-03</internalNodes>
          <leafValues>
            3.2474905252456665e-01 -4.9682945013046265e-01</leafValues></_>
        <_>
          <internalNodes>
            0 -1 204 1.2120923493057489e-03</internalNodes>
          <leafValues>
            -2.0408211648464203e-01 6.5447944402694702e-01</leafValues></_>
        <_>
          <internalNodes>
            0 -1 154 -1.5316337347030640e-01</internalNodes>
          <leafValues>
            -1.4765916764736176e-01 8.5683864355087280e-01</leafValues></_>
        <_>
          <internalNodes>
            0 -1 227 -4.3735463987104595e-04</internalNodes>
          <leafValues>
            6.9586491584777832e-01 -2.2739042341709137e-01</leafValues></_>
        <_>
          <internalNodes>
            0 -1 244 6.8654213100671768e-04</internalNodes>
          <leafValues>
            -2.6666492223739624e-01 5.9552389383316040e-01</leafValues></_>
        <_>
          <internalNodes>
            0 -1 237 -1.1099201219622046e-04</internalNodes>
          <leafValues>
            4.2538905143737793e-01 -3.0010336637496948e-01</leafValues></_>
        <_>
          <internalNodes>
            0 -1 50 -7.9419359099119902e-04</internalNodes>
          <leafValues>
            4.6021619439125061e-01 -2.9205864667892456e-01</leafValues></_>
        <_>
          <internalNodes>
            0 -1 132 6.7172974348068237e-02</internalNodes>
          <leafValues>
            -1.1756269633769989e-01 1.</leafValues></_>
        <_>
          <internalNodes>
            0 -1 71 -9.2858448624610901e-02</internalNodes>
          <leafValues>
            8.2772678136825562e-01 -1.6820620000362396e-01</leafValues></_>
        <_>
          <internalNodes>
            0 -1 103 3.6882818676531315e-03</internalNodes>
          <leafValues>
            1.9836258888244629e-01 -9.1350317001342773e-01</leafValues></_>
        <_>
          <internalNodes>
            0 -1 194 2.5609068688936532e-04</internalNodes>
          <leafValues>
            -3.0859196186065674e-01 4.9816510081291199e-01</leafValues></_>
        <_>
          <internalNodes>
            0 -1 216 -1.2466956395655870e-03</internalNodes>
          <leafValues>
            4.4458186626434326e-01 -3.4762695431709290e-01</leafValues></_>
        <_>
          <internalNodes>
            0 -1 156 -3.8415400777012110e-03</internalNodes>
          <leafValues>
            -5.0073456764221191e-01 3.2261246442794800e-01</leafValues></_>
        <_>
          <internalNodes>
            0 -1 236 -2.0321529358625412e-02</internalNodes>
          <leafValues>
            -5.0902527570724487e-01 2.8320640325546265e-01</leafValues></_></weakClassifiers></_>
    <!-- stage 11 -->
    <_>
      <maxWeakCount>15</maxWeakCount>
      <stageThreshold>-6.3236665725708008e-01</stageThreshold>
      <weakClassifiers>
        <_>
          <internalNodes>
            0 -1 229 -2.5784694589674473e-03</internalNodes>
          <leafValues>
            -3.9856800436973572e-01 8.2716047763824463e-01</leafValues></_>
        <_>
          <internalNodes>
            0 -1 58 -3.9186785579659045e-04</internalNodes>
          <leafValues>
            4.9077844619750977e-01 -3.9556854963302612e-01</leafValues></_>
        <_>
          <internalNodes>
            0 -1 172 6.1529494822025299e-02</internalNodes>
          <leafValues>
            -2.6046699285507202e-01 8.0961596965789795e-01</leafValues></_>
        <_>
          <internalNodes>
            0 -1 167 -4.9671810120344162e-03</internalNodes>
          <leafValues>
            7.4698555469512939e-01 -1.6997578740119934e-01</leafValues></_>
        <_>
          <internalNodes>
            0 -1 106 -1.5014817472547293e-03</internalNodes>
          <leafValues>
            -4.4746533036231995e-01 3.4956622123718262e-01</leafValues></_>
        <_>
          <internalNodes>
            0 -1 69 -2.1448774263262749e-02</internalNodes>
          <leafValues>
            5.3754097223281860e-01 -2.7416044473648071e-01</leafValues></_>
        <_>
          <internalNodes>
            0 -1 41 -3.1488225795328617e-03</internalNodes>
          <leafValues>
            3.0208364129066467e-01 -6.8423467874526978e-01</leafValues></_>
        <_>
          <internalNodes>
            0 -1 214 -4.8491708934307098e-02</internalNodes>
          <leafValues>
            -3.9033719897270203e-01 4.3148657679557800e-01</leafValues></_>
        <_>
          <internalNodes>
            0 -1 120 -5.9023387730121613e-03</internalNodes>
          <leafValues>
            -9.1338658332824707e-01 1.7980675399303436e-01</leafValues></_>
        <_>
          <internalNodes>
            0 -1 76 -1.0590077145025134e-03</internalNodes>
          <leafValues>
            4.9058330059051514e-01 -3.2349091768264771e-01</leafValues></_>
        <_>
          <internalNodes>
            0 -1 232 -2.8057489544153214e-03</internalNodes>
          <leafValues>
            6.3017696142196655e-01 -2.6974526047706604e-01</leafValues></_>
        <_>
          <internalNodes>
            0 -1 165 3.2703643664717674e-03</internalNodes>
          <leafValues>
            2.8532949090003967e-01 -6.4550572633743286e-01</leafValues></_>
        <_>
          <internalNodes>
            0 -1 126 -5.1524247974157333e-03</internalNodes>
          <leafValues>
            5.0179368257522583e-01 -2.9929089546203613e-01</leafValues></_>
        <_>
          <internalNodes>
            0 -1 87 -1.0853717103600502e-03</internalNodes>
          <leafValues>
            3.9365199208259583e-01 -3.9362937211990356e-01</leafValues></_>
        <_>
          <internalNodes>
            0 -1 73 2.6525091379880905e-03</internalNodes>
          <leafValues>
            -1.6591469943523407e-01 1.</leafValues></_></weakClassifiers></_>
    <!-- stage 12 -->
    <_>
      <maxWeakCount>18</maxWeakCount>
      <stageThreshold>-4.6864414215087891e-01</stageThreshold>
      <weakClassifiers>
        <_>
          <internalNodes>
            0 -1 253 1.3985380064696074e-03</internalNodes>
          <leafValues>
            -3.6190477013587952e-01 6.4999997615814209e-01</leafValues></_>
        <_>
          <internalNodes>
            0 -1 134 8.1941753160208464e-04</internalNodes>
          <leafValues>
            2.0319224894046783e-01 -6.8641668558120728e-01</leafValues></_>
        <_>
          <internalNodes>
            0 -1 102 -5.3194975480437279e-03</internalNodes>
          <leafValues>
            -5.1023250818252563e-01 2.0831701159477234e-01</leafValues></_>
        <_>
          <internalNodes>
            0 -1 235 -6.1812717467546463e-03</internalNodes>
          <leafValues>
            7.3820352554321289e-01 -1.6620393097400665e-01</leafValues></_>
        <_>
          <internalNodes>
            0 -1 8 -1.8012599647045135e-01</internalNodes>
          <leafValues>
            7.0901203155517578e-01 -1.6596829891204834e-01</leafValues></_>
        <_>
          <internalNodes>
            0 -1 7 6.7514933645725250e-02</internalNodes>
          <leafValues>
            -1.4095152914524078e-01 7.0963680744171143e-01</leafValues></_>
        <_>
          <internalNodes>
            0 -1 223 3.3611521124839783e-02</internalNodes>
          <leafValues>
            -1.7740745842456818e-01 5.5858963727951050e-01</leafValues></_>
        <_>
          <internalNodes>
            0 -1 19 -7.4748136103153229e-04</internalNodes>
          <leafValues>
            5.7393872737884521e-01 -1.5375114977359772e-01</leafValues></_>
        <_>
          <internalNodes>
            0 -1 147 -5.5107427760958672e-03</internalNodes>
          <leafValues>
            -6.0517179965972900e-01 1.6038595139980316e-01</leafValues></_>
        <_>
          <internalNodes>
            0 -1 189 -3.3486876636743546e-02</internalNodes>
          <leafValues>
            7.2073328495025635e-01 -1.4483258128166199e-01</leafValues></_>
        <_>
          <internalNodes>
            0 -1 171 -2.6830388233065605e-03</internalNodes>
          <leafValues>
            2.6482504606246948e-01 -4.7162514925003052e-01</leafValues></_>
        <_>
          <internalNodes>
            0 -1 153 -1.5203203260898590e-01</internalNodes>
          <leafValues>
            -8.7749606370925903e-01 1.7229723930358887e-01</leafValues></_>
        <_>
          <internalNodes>
            0 -1 176 3.0468055047094822e-03</internalNodes>
          <leafValues>
            -3.2832348346710205e-01 3.7902501225471497e-01</leafValues></_>
        <_>
          <internalNodes>
            0 -1 208 -4.7749515622854233e-02</internalNodes>
          <leafValues>
            -1.0549405217170715e-01 9.3337255716323853e-01</leafValues></_>
        <_>
          <internalNodes>
            0 -1 39 -3.8299015723168850e-03</internalNodes>
          <leafValues>
            -7.7527713775634766e-01 1.3888098299503326e-01</leafValues></_>
        <_>
          <internalNodes>
            0 -1 118 1.8721129745244980e-02</internalNodes>
          <leafValues>
            -3.4632471203804016e-01 3.1191489100456238e-01</leafValues></_>
        <_>
          <internalNodes>
            0 -1 252 7.2505762800574303e-03</internalNodes>
          <leafValues>
            -1.8375919759273529e-01 8.0870240926742554e-01</leafValues></_>
        <_>
          <internalNodes>
            0 -1 68 -1.1131996288895607e-02</internalNodes>
          <leafValues>
            1.8436636030673981e-01 -8.1756049394607544e-01</leafValues></_></weakClassifiers></_>
    <!-- stage 13 -->
    <_>
      <maxWeakCount>19</maxWeakCount>
      <stageThreshold>-5.9337043762207031e-01</stageThreshold>
      <weakClassifiers>
        <_>
          <internalNodes>
            0 -1 14 -5.5042620748281479e-02</internalNodes>
          <leafValues>
            6.1111110448837280e-01 -4.2346939444541931e-01</leafValues></_>
        <_>
          <internalNodes>
            0 -1 225 2.9997882666066289e-04</internalNodes>
          <leafValues>
            -3.4349223971366882e-01 3.5715323686599731e-01</leafValues></_>
        <_>
          <internalNodes>
            0 -1 110 1.0145561100216582e-04</internalNodes>
          <leafValues>
            3.2661762833595276e-01 -3.2527333498001099e-01</leafValues></_>
        <_>
          <internalNodes>
            0 -1 149 4.3173821177333593e-04</internalNodes>
          <leafValues>
            2.1482606232166290e-01 -5.2948701381683350e-01</leafValues></_>
        <_>
          <internalNodes>
            0 -1 193 -1.3199030945543200e-04</internalNodes>
          <leafValues>
            -4.0804564952850342e-01 3.1325787305831909e-01</leafValues></_>
        <_>
          <internalNodes>
            0 -1 61 -1.7438035458326340e-02</internalNodes>
          <leafValues>
            -5.6409549713134766e-01 1.6441777348518372e-01</leafValues></_>
        <_>
          <internalNodes>
            0 -1 231 -1.2410843744874001e-02</internalNodes>
          <leafValues>
            1.5472519397735596e-01 -7.1477925777435303e-01</leafValues></_>
        <_>
          <internalNodes>
            0 -1 224 7.5618820264935493e-03</internalNodes>
          <leafValues>
            -1.8309780955314636e-01 6.4884108304977417e-01</leafValues></_>
        <_>
          <internalNodes>
            0 -1 211 3.7644250551238656e-04</internalNodes>
          <leafValues>
            -1.9027851521968842e-01 5.8926439285278320e-01</leafValues></_>
        <_>
          <internalNodes>
            0 -1 191 -1.6265150159597397e-02</internalNodes>
          <leafValues>
            -1.3610754907131195e-01 7.7960282564163208e-01</leafValues></_>
        <_>
          <internalNodes>
            0 -1 93 -1.4355842024087906e-02</internalNodes>
          <leafValues>
            1.7288324236869812e-01 -7.3241424560546875e-01</leafValues></_>
        <_>
          <internalNodes>
            0 -1 78 -1.0900926776230335e-02</internalNodes>
          <leafValues>
            7.9853242635726929e-01 -1.8192079663276672e-01</leafValues></_>
        <_>
          <internalNodes>
            0 -1 183 5.8962928596884012e-04</internalNodes>
          <leafValues>
            2.5861018896102905e-01 -5.2702099084854126e-01</leafValues></_>
        <_>
          <internalNodes>
            0 -1 47 7.3132175020873547e-04</internalNodes>
          <leafValues>
            -2.5469869375228882e-01 4.4595634937286377e-01</leafValues></_>
        <_>
          <internalNodes>
            0 -1 141 3.6734939203597605e-04</internalNodes>
          <leafValues>
            -2.7828550338745117e-01 4.4295504689216614e-01</leafValues></_>
        <_>
          <internalNodes>
            0 -1 150 -6.7956611746922135e-04</internalNodes>
          <leafValues>
            5.9398990869522095e-01 -2.2552710771560669e-01</leafValues></_>
        <_>
          <internalNodes>
            0 -1 221 3.8922035600990057e-03</internalNodes>
          <leafValues>
            -3.1931573152542114e-01 3.5480770468711853e-01</leafValues></_>
        <_>
          <internalNodes>
            0 -1 168 7.5143878348171711e-03</internalNodes>
          <leafValues>
            -1.7535097897052765e-01 7.3037838935852051e-01</leafValues></_>
        <_>
          <internalNodes>
            0 -1 174 -4.6367719769477844e-03</internalNodes>
          <leafValues>
            8.0316376686096191e-01 -1.4062954485416412e-01</leafValues></_></weakClassifiers></_>
    <!-- stage 14 -->
    <_>
      <maxWeakCount>18</maxWeakCount>
      <stageThreshold>-4.3217539787292480e-01</stageThreshold>
      <weakClassifiers>
        <_>
          <internalNodes>
            0 -1 144 -1.4010299928486347e-03</internalNodes>
          <leafValues>
            4.3661972880363464e-01 -4.5251396298408508e-01</leafValues></_>
        <_>
          <internalNodes>
            0 -1 111 -2.3339390754699707e-02</internalNodes>
          <leafValues>
            -5.8034610748291016e-01 2.3861761391162872e-01</leafValues></_>
        <_>
          <internalNodes>
            0 -1 36 -7.5402944348752499e-03</internalNodes>
          <leafValues>
            1.2405768036842346e-01 -1.</leafValues></_>
        <_>
          <internalNodes>
            0 -1 55 -2.2033865097910166e-03</internalNodes>
          <leafValues>
            -4.5358428359031677e-01 3.0785748362541199e-01</leafValues></_>
        <_>
          <internalNodes>
            0 -1 243 2.6530362665653229e-03</internalNodes>
          <leafValues>
            -3.3767545223236084e-01 4.2394113540649414e-01</leafValues></_>
        <_>
          <internalNodes>
            0 -1 100 1.5966725349426270e-01</internalNodes>
          <leafValues>
            -1.6769243776798248e-01 6.9298124313354492e-01</leafValues></_>
        <_>
          <internalNodes>
            0 -1 187 -5.7208444923162460e-03</internalNodes>
          <leafValues>
            7.9075682163238525e-01 -1.4033608138561249e-01</leafValues></_>
        <_>
          <internalNodes>
            0 -1 256 9.7662105690687895e-04</internalNodes>
          <leafValues>
            -2.1120733022689819e-01 5.4611694812774658e-01</leafValues></_>
        <_>
          <internalNodes>
            0 -1 161 5.1710661500692368e-02</internalNodes>
          <leafValues>
            -2.3176679015159607e-01 6.4353847503662109e-01</leafValues></_>
        <_>
          <internalNodes>
            0 -1 155 -8.1844344735145569e-02</internalNodes>
          <leafValues>
            8.1893914937973022e-01 -1.4680394530296326e-01</leafValues></_>
        <_>
          <internalNodes>
            0 -1 239 -2.0252931863069534e-02</internalNodes>
          <leafValues>
            8.3726948499679565e-01 -9.1606542468070984e-02</leafValues></_>
        <_>
          <internalNodes>
            0 -1 75 1.9485969096422195e-04</internalNodes>
          <leafValues>
            3.9143648743629456e-01 -3.4073778986930847e-01</leafValues></_>
        <_>
          <internalNodes>
            0 -1 219 6.2235238146968186e-05</internalNodes>
          <leafValues>
            -4.0677276253700256e-01 3.6726537346839905e-01</leafValues></_>
        <_>
          <internalNodes>
            0 -1 241 -5.3421687334775925e-04</internalNodes>
          <leafValues>
            5.3704166412353516e-01 -2.7890491485595703e-01</leafValues></_>
        <_>
          <internalNodes>
            0 -1 162 -5.7145893573760986e-02</internalNodes>
          <leafValues>
            -1.6417571902275085e-01 8.3029961585998535e-01</leafValues></_>
        <_>
          <internalNodes>
            0 -1 96 -1.2466772459447384e-02</internalNodes>
          <leafValues>
            1.8815074861049652e-01 -8.2737433910369873e-01</leafValues></_>
        <_>
          <internalNodes>
            0 -1 242 1.2918420834466815e-03</internalNodes>
          <leafValues>
            -2.8389948606491089e-01 5.2351218461990356e-01</leafValues></_>
        <_>
          <internalNodes>
            0 -1 53 -1.1211646720767021e-02</internalNodes>
          <leafValues>
            5.5814087390899658e-01 -2.3270812630653381e-01</leafValues></_></weakClassifiers></_>
    <!-- stage 15 -->
    <_>
      <maxWeakCount>20</maxWeakCount>
      <stageThreshold>-6.6060984134674072e-01</stageThreshold>
      <weakClassifiers>
        <_>
          <internalNodes>
            0 -1 217 -1.1494190990924835e-01</internalNodes>
          <leafValues>
            -4.8985508084297180e-01 4.4516128301620483e-01</leafValues></_>
        <_>
          <internalNodes>
            0 -1 128 5.9868097305297852e-03</internalNodes>
          <leafValues>
            3.5425230860710144e-01 -4.4848901033401489e-01</leafValues></_>
        <_>
          <internalNodes>
            0 -1 117 -1.4712889678776264e-03</internalNodes>
          <leafValues>
            6.3082140684127808e-01 -2.2774003446102142e-01</leafValues></_>
        <_>
          <internalNodes>
            0 -1 49 -1.8228471279144287e-02</internalNodes>
          <leafValues>
            6.6652971506118774e-01 -1.9049942493438721e-01</leafValues></_>
        <_>
          <internalNodes>
            0 -1 111 -2.4119460955262184e-02</internalNodes>
          <leafValues>
            -5.4052782058715820e-01 2.4802628159523010e-01</leafValues></_>
        <_>
          <internalNodes>
            0 -1 31 -2.5825463235378265e-02</internalNodes>
          <leafValues>
            2.9219761490821838e-01 -4.9511885643005371e-01</leafValues></_>
        <_>
          <internalNodes>
            0 -1 52 -5.5602313950657845e-03</internalNodes>
          <leafValues>
            -7.3268312215805054e-01 1.4060530066490173e-01</leafValues></_>
        <_>
          <internalNodes>
            0 -1 145 1.3596756616607308e-03</internalNodes>
          <leafValues>
            2.8677812218666077e-01 -5.9249490499496460e-01</leafValues></_>
        <_>
          <internalNodes>
            0 -1 37 -3.3523119054734707e-03</internalNodes>
          <leafValues>
            5.4810154438018799e-01 -2.3239128291606903e-01</leafValues></_>
        <_>
          <internalNodes>
            0 -1 138 3.2382993958890438e-04</internalNodes>
          <leafValues>
            4.0004283189773560e-01 -4.1405382752418518e-01</leafValues></_>
        <_>
          <internalNodes>
            0 -1 180 -2.0099118351936340e-01</internalNodes>
          <leafValues>
            -6.7312765121459961e-01 2.1346332132816315e-01</leafValues></_>
        <_>
          <internalNodes>
            0 -1 200 -2.0411890000104904e-02</internalNodes>
          <leafValues>
            6.0699605941772461e-01 -2.7763843536376953e-01</leafValues></_>
        <_>
          <internalNodes>
            0 -1 130 2.0361412316560745e-02</internalNodes>
          <leafValues>
            -1.9134232401847839e-01 8.3758735656738281e-01</leafValues></_>
        <_>
          <internalNodes>
            0 -1 82 -1.0960740037262440e-02</internalNodes>
          <leafValues>
            7.8925687074661255e-01 -1.5948528051376343e-01</leafValues></_>
        <_>
          <internalNodes>
            0 -1 27 -8.2776416093111038e-03</internalNodes>
          <leafValues>
            2.4893154203891754e-01 -7.6448029279708862e-01</leafValues></_>
        <_>
          <internalNodes>
            0 -1 203 -5.8514606207609177e-03</internalNodes>
          <leafValues>
            -2.3310787975788116e-01 8.4797126054763794e-01</leafValues></_>
        <_>
          <internalNodes>
            0 -1 182 -1.4138544793240726e-04</internalNodes>
          <leafValues>
            4.3294426798820496e-01 -2.8326106071472168e-01</leafValues></_>
        <_>
          <internalNodes>
            0 -1 238 7.0567419752478600e-03</internalNodes>
          <leafValues>
            1.8558375537395477e-01 -7.6559311151504517e-01</leafValues></_>
        <_>
          <internalNodes>
            0 -1 16 -4.8694625496864319e-02</internalNodes>
          <leafValues>
            5.7326471805572510e-01 -2.5301826000213623e-01</leafValues></_>
        <_>
          <internalNodes>
            0 -1 72 -5.6140957167372108e-04</internalNodes>
          <leafValues>
            -5.3248733282089233e-01 3.3196252584457397e-01</leafValues></_></weakClassifiers></_></stages>
  <features>
    <_>
      <rects>
        <_>
          0 0 12 4 -1.</_>
        <_>
          0 0 6 2 2.</_>
        <_>
          6 2 6 2 2.</_></rects>
      <tilted>0</tilted></_>
    <_>
      <rects>
        <_>
          0 0 16 18 -1.</_>
        <_>
          0 0 8 9 2.</_>
        <_>
          8 9 8 9 2.</_></rects>
      <tilted>0</tilted></_>
    <_>
      <rects>
        <_>
          0 0 9 24 -1.</_>
        <_>
          0 8 9 8 2.</_></rects>
      <tilted>0</tilted></_>
    <_>
      <rects>
        <_>
          0 1 6 2 -1.</_>
        <_>
          0 1 3 1 2.</_>
        <_>
          3 2 3 1 2.</_></rects>
      <tilted>0</tilted></_>
    <_>
      <rects>
        <_>
          0 1 6 8 -1.</_>
        <_>
          0 1 3 4 2.</_>
        <_>
          3 5 3 4 2.</_></rects>
      <tilted>0</tilted></_>
    <_>
      <rects>
        <_>
          0 2 6 22 -1.</_>
        <_>
          3 2 3 22 2.</_></rects>
      <tilted>0</tilted></_>
    <_>
      <rects>
        <_>
          0 2 12 1 -1.</_>
        <_>
          4 2 4 1 2.</_></rects>
      <tilted>0</tilted></_>
    <_>
      <rects>
        <_>
          0 2 18 20 -1.</_>
        <_>
          9 2 9 20 2.</_></rects>
      <tilted>0</tilted></_>
    <_>
      <rects>
        <_>
          0 3 12 14 -1.</_>
        <_>
          6 3 6 14 2.</_></rects>
      <tilted>0</tilted></_>
    <_>
      <rects>
        <_>
          0 3 12 21 -1.</_>
        <_>
          6 3 6 21 2.</_></rects>
      <tilted>0</tilted></_>
    <_>
      <rects>
        <_>
          0 4 6 9 -1.</_>
        <_>
          3 4 3 9 2.</_></rects>
      <tilted>0</tilted></_>
    <_>
      <rects>
        <_>
          0 4 10 20 -1.</_>
        <_>
          5 4 5 20 2.</_></rects>
      <tilted>0</tilted></_>
    <_>
      <rects>
        <_>
          0 4 12 1 -1.</_>
        <_>
          6 4 6 1 2.</_></rects>
      <tilted>0</tilted></_>
    <_>
      <rects>
        <_>
          0 5 2 19 -1.</_>
        <_>
          1 5 1 19 2.</_></rects>
      <tilted>0</tilted></_>
    <_>
      <rects>
        <_>
          0 5 20 3 -1.</_>
        <_>
          10 5 10 3 2.</_></rects>
      <tilted>0</tilted></_>
    <_>
      <rects>
        <_>
          0 6 4 6 -1.</_>
        <_>
          2 6 2 6 2.</_></rects>
      <tilted>0</tilted></_>
    <_>
      <rects>
        <_>
          0 7 8 8 -1.</_>
        <_>
          4 7 4 8 2.</_></rects>
      <tilted>0</tilted></_>
    <_>
      <rects>
        <_>
          0 7 12 14 -1.</_>
        <_>
          6 7 6 14 2.</_></rects>
      <tilted>0</tilted></_>
    <_>
      <rects>
        <_>
          0 7 18 10 -1.</_>
        <_>
          9 7 9 10 2.</_></rects>
      <tilted>0</tilted></_>
    <_>
      <rects>
        <_>
          0 8 2 2 -1.</_>
        <_>
          0 8 1 1 2.</_>
        <_>
          1 9 1 1 2.</_></rects>
      <tilted>0</tilted></_>
    <_>
      <rects>
        <_>
          0 8 3 4 -1.</_>
        <_>
          0 10 3 2 2.</_></rects>
      <tilted>0</tilted></_>
    <_>
      <rects>
        <_>
          0 8 3 8 -1.</_>
        <_>
          0 12 3 4 2.</_></rects>
      <tilted>0</tilted></_>
    <_>
      <rects>
        <_>
          0 10 2 5 -1.</_>
        <_>
          1 10 1 5 2.</_></rects>
      <tilted>0</tilted></_>
    <_>
      <rects>
        <_>
          0 10 4 2 -1.</_>
        <_>
          2 10 2 2 2.</_></rects>
      <tilted>0</tilted></_>
    <_>
      <rects>
        <_>
          0 10 6 7 -1.</_>
        <_>
          3 10 3 7 2.</_></rects>
      <tilted>0</tilted></_>
    <_>
      <rects>
        <_>
          0 10 8 4 -1.</_>
        <_>
          0 10 4 2 2.</_>
        <_>
          4 12 4 2 2.</_></rects>
      <tilted>0</tilted></_>
    <_>
      <rects>
        <_>
          0 10 12 10 -1.</_>
        <_>
          0 10 6 5 2.</_>
        <_>
          6 15 6 5 2.</_></rects>
      <tilted>0</tilted></_>
    <_>
      <rects>
        <_>
          0 11 1 9 -1.</_>
        <_>
          0 14 1 3 2.</_></rects>
      <tilted>0</tilted></_>
    <_>
      <rects>
        <_>
          0 11 8 1 -1.</_>
        <_>
          4 11 4 1 2.</_></rects>
      <tilted>0</tilted></_>
    <_>
      <rects>
        <_>
          0 12 3 4 -1.</_>
        <_>
          1 12 1 4 2.</_></rects>
      <tilted>0</tilted></_>
    <_>
      <rects>
        <_>
          0 12 2 5 -1.</_>
        <_>
          1 12 1 5 2.</_></rects>
      <tilted>0</tilted></_>
    <_>
      <rects>
        <_>
          0 12 12 2 -1.</_>
        <_>
          4 12 4 2 2.</_></rects>
      <tilted>0</tilted></_>
    <_>
      <rects>
        <_>
          0 13 6 1 -1.</_>
        <_>
          3 13 3 1 2.</_></rects>
      <tilted>0</tilted></_>
    <_>
      <rects>
        <_>
          0 15 14 4 -1.</_>
        <_>
          0 15 7 2 2.</_>
        <_>
          7 17 7 2 2.</_></rects>
      <tilted>0</tilted></_>
    <_>
      <rects>
        <_>
          0 16 4 4 -1.</_>
        <_>
          2 16 2 4 2.</_></rects>
      <tilted>0</tilted></_>
    <_>
      <rects>
        <_>
          0 17 6 3 -1.</_>
        <_>
          3 17 3 3 2.</_></rects>
      <tilted>0</tilted></_>
    <_>
      <rects>
        <_>
          0 18 6 3 -1.</_>
        <_>
          2 18 2 3 2.</_></rects>
      <tilted>0</tilted></_>
    <_>
      <rects>
        <_>
          0 18 6 6 -1.</_>
        <_>
          0 18 3 3 2.</_>
        <_>
          3 21 3 3 2.</_></rects>
      <tilted>0</tilted></_>
    <_>
      <rects>
        <_>
          0 18 16 4 -1.</_>
        <_>
          8 18 8 4 2.</_></rects>
      <tilted>0</tilted></_>
    <_>
      <rects>
        <_>
          0 19 2 4 -1.</_>
        <_>
          0 21 2 2 2.</_></rects>
      <tilted>0</tilted></_>
    <_>
      <rects>
        <_>
          0 19 20 4 -1.</_>
        <_>
          0 21 20 2 2.</_></rects>
      <tilted>0</tilted></_>
    <_>
      <rects>
        <_>
          0 21 3 1 -1.</_>
        <_>
          1 21 1 1 2.</_></rects>
      <tilted>0</tilted></_>
    <_>
      <rects>
        <_>
          0 21 4 2 -1.</_>
        <_>
          0 21 2 1 2.</_>
        <_>
          2 22 2 1 2.</_></rects>
      <tilted>0</tilted></_>
    <_>
      <rects>
        <_>
          0 21 23 2 -1.</_>
        <_>
          0 22 23 1 2.</_></rects>
      <tilted>0</tilted></_>
    <_>
      <rects>
        <_>
          0 21 24 2 -1.</_>
        <_>
          0 22 24 1 2.</_></rects>
      <tilted>0</tilted></_>
    <_>
      <rects>
        <_>
          0 22 2 2 -1.</_>
        <_>
          1 22 1 2 2.</_></rects>
      <tilted>0</tilted></_>
    <_>
      <rects>
        <_>
          0 22 20 2 -1.</_>
        <_>
          0 23 20 1 2.</_></rects>
      <tilted>0</tilted></_>
    <_>
      <rects>
        <_>
          1 0 2 2 -1.</_>
        <_>
          1 0 1 1 2.</_>
        <_>
          2 1 1 1 2.</_></rects>
      <tilted>0</tilted></_>
    <_>
      <rects>
        <_>
          1 0 18 4 -1.</_>
        <_>
          1 0 9 2 2.</_>
        <_>
          10 2 9 2 2.</_></rects>
      <tilted>0</tilted></_>
    <_>
      <rects>
        <_>
          1 4 18 1 -1.</_>
        <_>
          10 4 9 1 2.</_></rects>
      <tilted>0</tilted></_>
    <_>
      <rects>
        <_>
          1 6 4 16 -1.</_>
        <_>
          1 6 2 8 2.</_>
        <_>
          3 14 2 8 2.</_></rects>
      <tilted>0</tilted></_>
    <_>
      <rects>
        <_>
          1 8 12 1 -1.</_>
        <_>
          7 8 6 1 2.</_></rects>
      <tilted>0</tilted></_>
    <_>
      <rects>
        <_>
          1 9 8 4 -1.</_>
        <_>
          1 9 4 2 2.</_>
        <_>
          5 11 4 2 2.</_></rects>
      <tilted>0</tilted></_>
    <_>
      <rects>
        <_>
          1 11 22 4 -1.</_>
        <_>
          1 11 11 2 2.</_>
        <_>
          12 13 11 2 2.</_></rects>
      <tilted>0</tilted></_>
    <_>
      <rects>
        <_>
          1 12 11 4 -1.</_>
        <_>
          1 14 11 2 2.</_></rects>
      <tilted>0</tilted></_>
    <_>
      <rects>
        <_>
          1 13 4 1 -1.</_>
        <_>
          3 13 2 1 2.</_></rects>
      <tilted>0</tilted></_>
    <_>
      <rects>
        <_>
          1 13 10 2 -1.</_>
        <_>
          1 13 5 1 2.</_>
        <_>
          6 14 5 1 2.</_></rects>
      <tilted>0</tilted></_>
    <_>
      <rects>
        <_>
          1 13 14 2 -1.</_>
        <_>
          1 14 14 1 2.</_></rects>
      <tilted>0</tilted></_>
    <_>
      <rects>
        <_>
          1 15 2 3 -1.</_>
        <_>
          2 15 1 3 2.</_></rects>
      <tilted>0</tilted></_>
    <_>
      <rects>
        <_>
          1 16 4 2 -1.</_>
        <_>
          3 16 2 2 2.</_></rects>
      <tilted>0</tilted></_>
    <_>
      <rects>
        <_>
          1 16 11 6 -1.</_>
        <_>
          1 19 11 3 2.</_></rects>
      <tilted>0</tilted></_>
    <_>
      <rects>
        <_>
          1 17 9 1 -1.</_>
        <_>
          4 17 3 1 2.</_></rects>
      <tilted>0</tilted></_>
    <_>
      <rects>
        <_>
          1 17 14 2 -1.</_>
        <_>
          1 17 7 1 2.</_>
        <_>
          8 18 7 1 2.</_></rects>
      <tilted>0</tilted></_>
    <_>
      <rects>
        <_>
          1 18 2 6 -1.</_>
        <_>
          2 18 1 6 2.</_></rects>
      <tilted>0</tilted></_>
    <_>
      <rects>
        <_>
          1 20 16 4 -1.</_>
        <_>
          1 22 16 2 2.</_></rects>
      <tilted>0</tilted></_>
    <_>
      <rects>
        <_>
          1 21 2 2 -1.</_>
        <_>
          1 21 1 1 2.</_>
        <_>
          2 22 1 1 2.</_></rects>
      <tilted>0</tilted></_>
    <_>
      <rects>
        <_>
          1 21 4 2 -1.</_>
        <_>
          1 21 2 1 2.</_>
        <_>
          3 22 2 1 2.</_></rects>
      <tilted>0</tilted></_>
    <_>
      <rects>
        <_>
          1 22 2 2 -1.</_>
        <_>
          1 22 1 1 2.</_>
        <_>
          2 23 1 1 2.</_></rects>
      <tilted>0</tilted></_>
    <_>
      <rects>
        <_>
          2 0 6 2 -1.</_>
        <_>
          4 0 2 2 2.</_></rects>
      <tilted>0</tilted></_>
    <_>
      <rects>
        <_>
          2 0 6 9 -1.</_>
        <_>
          5 0 3 9 2.</_></rects>
      <tilted>0</tilted></_>
    <_>
      <rects>
        <_>
          2 0 10 8 -1.</_>
        <_>
          2 0 5 4 2.</_>
        <_>
          7 4 5 4 2.</_></rects>
      <tilted>0</tilted></_>
    <_>
      <rects>
        <_>
          2 1 16 6 -1.</_>
        <_>
          10 1 8 6 2.</_></rects>
      <tilted>0</tilted></_>
    <_>
      <rects>
        <_>
          2 6 2 1 -1.</_>
        <_>
          3 6 1 1 2.</_></rects>
      <tilted>0</tilted></_>
    <_>
      <rects>
        <_>
          2 6 10 14 -1.</_>
        <_>
          7 6 5 14 2.</_></rects>
      <tilted>0</tilted></_>
    <_>
      <rects>
        <_>
          2 10 15 2 -1.</_>
        <_>
          2 11 15 1 2.</_></rects>
      <tilted>0</tilted></_>
    <_>
      <rects>
        <_>
          2 13 7 2 -1.</_>
        <_>
          2 14 7 1 2.</_></rects>
      <tilted>0</tilted></_>
    <_>
      <rects>
        <_>
          2 18 10 4 -1.</_>
        <_>
          2 18 5 2 2.</_>
        <_>
          7 20 5 2 2.</_></rects>
      <tilted>0</tilted></_>
    <_>
      <rects>
        <_>
          2 19 15 5 -1.</_>
        <_>
          7 19 5 5 2.</_></rects>
      <tilted>0</tilted></_>
    <_>
      <rects>
        <_>
          2 20 16 4 -1.</_>
        <_>
          2 20 8 2 2.</_>
        <_>
          10 22 8 2 2.</_></rects>
      <tilted>0</tilted></_>
    <_>
      <rects>
        <_>
          2 22 4 2 -1.</_>
        <_>
          2 22 2 1 2.</_>
        <_>
          4 23 2 1 2.</_></rects>
      <tilted>0</tilted></_>
    <_>
      <rects>
        <_>
          2 22 15 2 -1.</_>
        <_>
          7 22 5 2 2.</_></rects>
      <tilted>0</tilted></_>
    <_>
      <rects>
        <_>
          2 22 12 2 -1.</_>
        <_>
          2 23 12 1 2.</_></rects>
      <tilted>0</tilted></_>
    <_>
      <rects>
        <_>
          3 0 14 2 -1.</_>
        <_>
          3 0 7 1 2.</_>
        <_>
          10 1 7 1 2.</_></rects>
      <tilted>0</tilted></_>
    <_>
      <rects>
        <_>
          3 0 12 2 -1.</_>
        <_>
          3 1 12 1 2.</_></rects>
      <tilted>0</tilted></_>
    <_>
      <rects>
        <_>
          3 0 21 16 -1.</_>
        <_>
          3 8 21 8 2.</_></rects>
      <tilted>0</tilted></_>
    <_>
      <rects>
        <_>
          3 3 15 4 -1.</_>
        <_>
          3 5 15 2 2.</_></rects>
      <tilted>0</tilted></_>
    <_>
      <rects>
        <_>
          3 4 10 7 -1.</_>
        <_>
          8 4 5 7 2.</_></rects>
      <tilted>0</tilted></_>
    <_>
      <rects>
        <_>
          3 11 2 8 -1.</_>
        <_>
          4 11 1 8 2.</_></rects>
      <tilted>0</tilted></_>
    <_>
      <rects>
        <_>
          3 11 16 2 -1.</_>
        <_>
          3 12 16 1 2.</_></rects>
      <tilted>0</tilted></_>
    <_>
      <rects>
        <_>
          3 14 2 5 -1.</_>
        <_>
          4 14 1 5 2.</_></rects>
      <tilted>0</tilted></_>
    <_>
      <rects>
        <_>
          3 14 2 7 -1.</_>
        <_>
          4 14 1 7 2.</_></rects>
      <tilted>0</tilted></_>
    <_>
      <rects>
        <_>
          3 15 6 6 -1.</_>
        <_>
          3 15 3 3 2.</_>
        <_>
          6 18 3 3 2.</_></rects>
      <tilted>0</tilted></_>
    <_>
      <rects>
        <_>
          3 19 21 4 -1.</_>
        <_>
          3 21 21 2 2.</_></rects>
      <tilted>0</tilted></_>
    <_>
      <rects>
        <_>
          3 20 9 2 -1.</_>
        <_>
          6 20 3 2 2.</_></rects>
      <tilted>0</tilted></_>
    <_>
      <rects>
        <_>
          3 20 21 3 -1.</_>
        <_>
          10 20 7 3 2.</_></rects>
      <tilted>0</tilted></_>
    <_>
      <rects>
        <_>
          4 0 1 8 -1.</_>
        <_>
          4 4 1 4 2.</_></rects>
      <tilted>0</tilted></_>
    <_>
      <rects>
        <_>
          4 0 3 4 -1.</_>
        <_>
          5 0 1 4 2.</_></rects>
      <tilted>0</tilted></_>
    <_>
      <rects>
        <_>
          4 0 6 14 -1.</_>
        <_>
          4 0 3 7 2.</_>
        <_>
          7 7 3 7 2.</_></rects>
      <tilted>0</tilted></_>
    <_>
      <rects>
        <_>
          4 0 8 10 -1.</_>
        <_>
          4 5 8 5 2.</_></rects>
      <tilted>0</tilted></_>
    <_>
      <rects>
        <_>
          4 1 16 16 -1.</_>
        <_>
          4 1 8 8 2.</_>
        <_>
          12 9 8 8 2.</_></rects>
      <tilted>0</tilted></_>
    <_>
      <rects>
        <_>
          4 1 18 17 -1.</_>
        <_>
          13 1 9 17 2.</_></rects>
      <tilted>0</tilted></_>
    <_>
      <rects>
        <_>
          4 2 4 10 -1.</_>
        <_>
          6 2 2 10 2.</_></rects>
      <tilted>0</tilted></_>
    <_>
      <rects>
        <_>
          4 4 4 14 -1.</_>
        <_>
          4 4 2 7 2.</_>
        <_>
          6 11 2 7 2.</_></rects>
      <tilted>0</tilted></_>
    <_>
      <rects>
        <_>
          4 7 2 5 -1.</_>
        <_>
          5 7 1 5 2.</_></rects>
      <tilted>0</tilted></_>
    <_>
      <rects>
        <_>
          4 8 6 4 -1.</_>
        <_>
          4 8 3 2 2.</_>
        <_>
          7 10 3 2 2.</_></rects>
      <tilted>0</tilted></_>
    <_>
      <rects>
        <_>
          4 8 10 2 -1.</_>
        <_>
          4 9 10 1 2.</_></rects>
      <tilted>0</tilted></_>
    <_>
      <rects>
        <_>
          4 10 1 6 -1.</_>
        <_>
          4 13 1 3 2.</_></rects>
      <tilted>0</tilted></_>
    <_>
      <rects>
        <_>
          4 11 10 8 -1.</_>
        <_>
          4 11 5 4 2.</_>
        <_>
          9 15 5 4 2.</_></rects>
      <tilted>0</tilted></_>
    <_>
      <rects>
        <_>
          4 14 16 4 -1.</_>
        <_>
          4 14 8 2 2.</_>
        <_>
          12 16 8 2 2.</_></rects>
      <tilted>0</tilted></_>
    <_>
      <rects>
        <_>
          4 16 16 4 -1.</_>
        <_>
          4 16 8 2 2.</_>
        <_>
          12 18 8 2 2.</_></rects>
      <tilted>0</tilted></_>
    <_>
      <rects>
        <_>
          4 19 2 2 -1.</_>
        <_>
          4 19 1 1 2.</_>
        <_>
          5 20 1 1 2.</_></rects>
      <tilted>0</tilted></_>
    <_>
      <rects>
        <_>
          4 22 6 2 -1.</_>
        <_>
          6 22 2 2 2.</_></rects>
      <tilted>0</tilted></_>
    <_>
      <rects>
        <_>
          5 0 2 10 -1.</_>
        <_>
          5 5 2 5 2.</_></rects>
      <tilted>0</tilted></_>
    <_>
      <rects>
        <_>
          5 0 5 4 -1.</_>
        <_>
          5 2 5 2 2.</_></rects>
      <tilted>0</tilted></_>
    <_>
      <rects>
        <_>
          5 1 14 6 -1.</_>
        <_>
          12 1 7 6 2.</_></rects>
      <tilted>0</tilted></_>
    <_>
      <rects>
        <_>
          5 1 14 2 -1.</_>
        <_>
          5 2 14 1 2.</_></rects>
      <tilted>0</tilted></_>
    <_>
      <rects>
        <_>
          5 5 14 2 -1.</_>
        <_>
          5 6 14 1 2.</_></rects>
      <tilted>0</tilted></_>
    <_>
      <rects>
        <_>
          5 6 14 2 -1.</_>
        <_>
          5 6 7 1 2.</_>
        <_>
          12 7 7 1 2.</_></rects>
      <tilted>0</tilted></_>
    <_>
      <rects>
        <_>
          5 7 18 3 -1.</_>
        <_>
          14 7 9 3 2.</_></rects>
      <tilted>0</tilted></_>
    <_>
      <rects>
        <_>
          5 8 2 9 -1.</_>
        <_>
          6 8 1 9 2.</_></rects>
      <tilted>0</tilted></_>
    <_>
      <rects>
        <_>
          5 9 2 8 -1.</_>
        <_>
          6 9 1 8 2.</_></rects>
      <tilted>0</tilted></_>
    <_>
      <rects>
        <_>
          5 13 2 10 -1.</_>
        <_>
          6 13 1 10 2.</_></rects>
      <tilted>0</tilted></_>
    <_>
      <rects>
        <_>
          5 13 12 2 -1.</_>
        <_>
          5 13 6 1 2.</_>
        <_>
          11 14 6 1 2.</_></rects>
      <tilted>0</tilted></_>
    <_>
      <rects>
        <_>
          5 14 7 6 -1.</_>
        <_>
          5 17 7 3 2.</_></rects>
      <tilted>0</tilted></_>
    <_>
      <rects>
        <_>
          5 15 12 2 -1.</_>
        <_>
          5 15 6 1 2.</_>
        <_>
          11 16 6 1 2.</_></rects>
      <tilted>0</tilted></_>
    <_>
      <rects>
        <_>
          5 20 4 2 -1.</_>
        <_>
          7 20 2 2 2.</_></rects>
      <tilted>0</tilted></_>
    <_>
      <rects>
        <_>
          6 0 14 2 -1.</_>
        <_>
          6 0 7 1 2.</_>
        <_>
          13 1 7 1 2.</_></rects>
      <tilted>0</tilted></_>
    <_>
      <rects>
        <_>
          6 1 4 2 -1.</_>
        <_>
          6 1 2 1 2.</_>
        <_>
          8 2 2 1 2.</_></rects>
      <tilted>0</tilted></_>
    <_>
      <rects>
        <_>
          6 1 18 1 -1.</_>
        <_>
          15 1 9 1 2.</_></rects>
      <tilted>0</tilted></_>
    <_>
      <rects>
        <_>
          6 1 18 10 -1.</_>
        <_>
          6 1 9 5 2.</_>
        <_>
          15 6 9 5 2.</_></rects>
      <tilted>0</tilted></_>
    <_>
      <rects>
        <_>
          6 3 10 3 -1.</_>
        <_>
          11 3 5 3 2.</_></rects>
      <tilted>0</tilted></_>
    <_>
      <rects>
        <_>
          6 3 14 18 -1.</_>
        <_>
          6 3 7 9 2.</_>
        <_>
          13 12 7 9 2.</_></rects>
      <tilted>0</tilted></_>
    <_>
      <rects>
        <_>
          6 5 12 6 -1.</_>
        <_>
          12 5 6 6 2.</_></rects>
      <tilted>0</tilted></_>
    <_>
      <rects>
        <_>
          6 7 2 13 -1.</_>
        <_>
          7 7 1 13 2.</_></rects>
      <tilted>0</tilted></_>
    <_>
      <rects>
        <_>
          6 9 2 8 -1.</_>
        <_>
          7 9 1 8 2.</_></rects>
      <tilted>0</tilted></_>
    <_>
      <rects>
        <_>
          6 9 4 6 -1.</_>
        <_>
          8 9 2 6 2.</_></rects>
      <tilted>0</tilted></_>
    <_>
      <rects>
        <_>
          6 10 6 4 -1.</_>
        <_>
          6 12 6 2 2.</_></rects>
      <tilted>0</tilted></_>
    <_>
      <rects>
        <_>
          6 11 4 2 -1.</_>
        <_>
          6 11 2 1 2.</_>
        <_>
          8 12 2 1 2.</_></rects>
      <tilted>0</tilted></_>
    <_>
      <rects>
        <_>
          6 14 2 10 -1.</_>
        <_>
          6 14 1 5 2.</_>
        <_>
          7 19 1 5 2.</_></rects>
      <tilted>0</tilted></_>
    <_>
      <rects>
        <_>
          6 15 2 2 -1.</_>
        <_>
          7 15 1 2 2.</_></rects>
      <tilted>0</tilted></_>
    <_>
      <rects>
        <_>
          6 21 6 2 -1.</_>
        <_>
          6 21 3 1 2.</_>
        <_>
          9 22 3 1 2.</_></rects>
      <tilted>0</tilted></_>
    <_>
      <rects>
        <_>
          7 0 2 2 -1.</_>
        <_>
          8 0 1 2 2.</_></rects>
      <tilted>0</tilted></_>
    <_>
      <rects>
        <_>
          7 1 2 2 -1.</_>
        <_>
          7 1 1 1 2.</_>
        <_>
          8 2 1 1 2.</_></rects>
      <tilted>0</tilted></_>
    <_>
      <rects>
        <_>
          7 7 4 7 -1.</_>
        <_>
          9 7 2 7 2.</_></rects>
      <tilted>0</tilted></_>
    <_>
      <rects>
        <_>
          7 7 10 2 -1.</_>
        <_>
          12 7 5 2 2.</_></rects>
      <tilted>0</tilted></_>
    <_>
      <rects>
        <_>
          7 12 4 12 -1.</_>
        <_>
          9 12 2 12 2.</_></rects>
      <tilted>0</tilted></_>
    <_>
      <rects>
        <_>
          7 14 4 2 -1.</_>
        <_>
          7 15 4 1 2.</_></rects>
      <tilted>0</tilted></_>
    <_>
      <rects>
        <_>
          7 14 6 4 -1.</_>
        <_>
          7 16 6 2 2.</_></rects>
      <tilted>0</tilted></_>
    <_>
      <rects>
        <_>
          7 16 14 2 -1.</_>
        <_>
          7 16 7 1 2.</_>
        <_>
          14 17 7 1 2.</_></rects>
      <tilted>0</tilted></_>
    <_>
      <rects>
        <_>
          7 19 4 2 -1.</_>
        <_>
          7 19 2 1 2.</_>
        <_>
          9 20 2 1 2.</_></rects>
      <tilted>0</tilted></_>
    <_>
      <rects>
        <_>
          7 22 1 2 -1.</_>
        <_>
          7 23 1 1 2.</_></rects>
      <tilted>0</tilted></_>
    <_>
      <rects>
        <_>
          7 22 4 2 -1.</_>
        <_>
          9 22 2 2 2.</_></rects>
      <tilted>0</tilted></_>
    <_>
      <rects>
        <_>
          8 0 10 2 -1.</_>
        <_>
          8 1 10 1 2.</_></rects>
      <tilted>0</tilted></_>
    <_>
      <rects>
        <_>
          8 0 14 8 -1.</_>
        <_>
          8 4 14 4 2.</_></rects>
      <tilted>0</tilted></_>
    <_>
      <rects>
        <_>
          8 5 12 13 -1.</_>
        <_>
          12 5 4 13 2.</_></rects>
      <tilted>0</tilted></_>
    <_>
      <rects>
        <_>
          8 5 16 16 -1.</_>
        <_>
          8 5 8 8 2.</_>
        <_>
          16 13 8 8 2.</_></rects>
      <tilted>0</tilted></_>
    <_>
      <rects>
        <_>
          8 10 8 6 -1.</_>
        <_>
          8 10 4 3 2.</_>
        <_>
          12 13 4 3 2.</_></rects>
      <tilted>0</tilted></_>
    <_>
      <rects>
        <_>
          8 15 2 5 -1.</_>
        <_>
          9 15 1 5 2.</_></rects>
      <tilted>0</tilted></_>
    <_>
      <rects>
        <_>
          8 16 10 4 -1.</_>
        <_>
          8 16 5 2 2.</_>
        <_>
          13 18 5 2 2.</_></rects>
      <tilted>0</tilted></_>
    <_>
      <rects>
        <_>
          8 17 8 2 -1.</_>
        <_>
          8 17 4 1 2.</_>
        <_>
          12 18 4 1 2.</_></rects>
      <tilted>0</tilted></_>
    <_>
      <rects>
        <_>
          9 1 8 1 -1.</_>
        <_>
          13 1 4 1 2.</_></rects>
      <tilted>0</tilted></_>
    <_>
      <rects>
        <_>
          9 2 14 18 -1.</_>
        <_>
          9 2 7 9 2.</_>
        <_>
          16 11 7 9 2.</_></rects>
      <tilted>0</tilted></_>
    <_>
      <rects>
        <_>
          9 6 9 9 -1.</_>
        <_>
          12 6 3 9 2.</_></rects>
      <tilted>0</tilted></_>
    <_>
      <rects>
        <_>
          9 10 8 2 -1.</_>
        <_>
          9 10 4 1 2.</_>
        <_>
          13 11 4 1 2.</_></rects>
      <tilted>0</tilted></_>
    <_>
      <rects>
        <_>
          9 12 4 8 -1.</_>
        <_>
          9 12 2 4 2.</_>
        <_>
          11 16 2 4 2.</_></rects>
      <tilted>0</tilted></_>
    <_>
      <rects>
        <_>
          9 12 4 12 -1.</_>
        <_>
          9 12 2 6 2.</_>
        <_>
          11 18 2 6 2.</_></rects>
      <tilted>0</tilted></_>
    <_>
      <rects>
        <_>
          9 17 6 4 -1.</_>
        <_>
          9 19 6 2 2.</_></rects>
      <tilted>0</tilted></_>
    <_>
      <rects>
        <_>
          9 22 7 2 -1.</_>
        <_>
          9 23 7 1 2.</_></rects>
      <tilted>0</tilted></_>
    <_>
      <rects>
        <_>
          9 22 14 2 -1.</_>
        <_>
          9 23 14 1 2.</_></rects>
      <tilted>0</tilted></_>
    <_>
      <rects>
        <_>
          10 0 2 2 -1.</_>
        <_>
          10 0 1 1 2.</_>
        <_>
          11 1 1 1 2.</_></rects>
      <tilted>0</tilted></_>
    <_>
      <rects>
        <_>
          10 0 6 2 -1.</_>
        <_>
          10 0 3 1 2.</_>
        <_>
          13 1 3 1 2.</_></rects>
      <tilted>0</tilted></_>
    <_>
      <rects>
        <_>
          10 1 1 8 -1.</_>
        <_>
          10 5 1 4 2.</_></rects>
      <tilted>0</tilted></_>
    <_>
      <rects>
        <_>
          10 1 10 12 -1.</_>
        <_>
          15 1 5 12 2.</_></rects>
      <tilted>0</tilted></_>
    <_>
      <rects>
        <_>
          10 4 14 18 -1.</_>
        <_>
          17 4 7 18 2.</_></rects>
      <tilted>0</tilted></_>
    <_>
      <rects>
        <_>
          10 8 2 16 -1.</_>
        <_>
          11 8 1 16 2.</_></rects>
      <tilted>0</tilted></_>
    <_>
      <rects>
        <_>
          10 21 2 3 -1.</_>
        <_>
          11 21 1 3 2.</_></rects>
      <tilted>0</tilted></_>
    <_>
      <rects>
        <_>
          10 21 13 2 -1.</_>
        <_>
          10 22 13 1 2.</_></rects>
      <tilted>0</tilted></_>
    <_>
      <rects>
        <_>
          10 22 3 2 -1.</_>
        <_>
          10 23 3 1 2.</_></rects>
      <tilted>0</tilted></_>
    <_>
      <rects>
        <_>
          11 0 8 19 -1.</_>
        <_>
          15 0 4 19 2.</_></rects>
      <tilted>0</tilted></_>
    <_>
      <rects>
        <_>
          11 0 7 10 -1.</_>
        <_>
          11 5 7 5 2.</_></rects>
      <tilted>0</tilted></_>
    <_>
      <rects>
        <_>
          11 0 13 6 -1.</_>
        <_>
          11 2 13 2 2.</_></rects>
      <tilted>0</tilted></_>
    <_>
      <rects>
        <_>
          11 1 10 20 -1.</_>
        <_>
          11 1 5 10 2.</_>
        <_>
          16 11 5 10 2.</_></rects>
      <tilted>0</tilted></_>
    <_>
      <rects>
        <_>
          11 2 4 2 -1.</_>
        <_>
          13 2 2 2 2.</_></rects>
      <tilted>0</tilted></_>
    <_>
      <rects>
        <_>
          11 12 6 2 -1.</_>
        <_>
          11 13 6 1 2.</_></rects>
      <tilted>0</tilted></_>
    <_>
      <rects>
        <_>
          11 18 2 3 -1.</_>
        <_>
          12 18 1 3 2.</_></rects>
      <tilted>0</tilted></_>
    <_>
      <rects>
        <_>
          12 0 2 2 -1.</_>
        <_>
          12 0 1 1 2.</_>
        <_>
          13 1 1 1 2.</_></rects>
      <tilted>0</tilted></_>
    <_>
      <rects>
        <_>
          12 0 4 8 -1.</_>
        <_>
          12 0 2 4 2.</_>
        <_>
          14 4 2 4 2.</_></rects>
      <tilted>0</tilted></_>
    <_>
      <rects>
        <_>
          12 0 6 2 -1.</_>
        <_>
          12 0 3 1 2.</_>
        <_>
          15 1 3 1 2.</_></rects>
      <tilted>0</tilted></_>
    <_>
      <rects>
        <_>
          12 0 8 2 -1.</_>
        <_>
          12 0 4 1 2.</_>
        <_>
          16 1 4 1 2.</_></rects>
      <tilted>0</tilted></_>
    <_>
      <rects>
        <_>
          12 1 10 10 -1.</_>
        <_>
          12 1 5 5 2.</_>
        <_>
          17 6 5 5 2.</_></rects>
      <tilted>0</tilted></_>
    <_>
      <rects>
        <_>
          12 2 12 17 -1.</_>
        <_>
          18 2 6 17 2.</_></rects>
      <tilted>0</tilted></_>
    <_>
      <rects>
        <_>
          12 5 4 6 -1.</_>
        <_>
          12 7 4 2 2.</_></rects>
      <tilted>0</tilted></_>
    <_>
      <rects>
        <_>
          12 6 1 9 -1.</_>
        <_>
          12 9 1 3 2.</_></rects>
      <tilted>0</tilted></_>
    <_>
      <rects>
        <_>
          12 7 2 1 -1.</_>
        <_>
          13 7 1 1 2.</_></rects>
      <tilted>0</tilted></_>
    <_>
      <rects>
        <_>
          12 11 2 2 -1.</_>
        <_>
          13 11 1 2 2.</_></rects>
      <tilted>0</tilted></_>
    <_>
      <rects>
        <_>
          12 11 2 8 -1.</_>
        <_>
          12 11 1 4 2.</_>
        <_>
          13 15 1 4 2.</_></rects>
      <tilted>0</tilted></_>
    <_>
      <rects>
        <_>
          12 17 1 6 -1.</_>
        <_>
          12 19 1 2 2.</_></rects>
      <tilted>0</tilted></_>
    <_>
      <rects>
        <_>
          12 18 2 2 -1.</_>
        <_>
          12 18 1 1 2.</_>
        <_>
          13 19 1 1 2.</_></rects>
      <tilted>0</tilted></_>
    <_>
      <rects>
        <_>
          12 22 2 2 -1.</_>
        <_>
          13 22 1 2 2.</_></rects>
      <tilted>0</tilted></_>
    <_>
      <rects>
        <_>
          12 22 10 2 -1.</_>
        <_>
          12 22 5 1 2.</_>
        <_>
          17 23 5 1 2.</_></rects>
      <tilted>0</tilted></_>
    <_>
      <rects>
        <_>
          13 0 8 14 -1.</_>
        <_>
          13 0 4 7 2.</_>
        <_>
          17 7 4 7 2.</_></rects>
      <tilted>0</tilted></_>
    <_>
      <rects>
        <_>
          13 0 10 7 -1.</_>
        <_>
          18 0 5 7 2.</_></rects>
      <tilted>0</tilted></_>
    <_>
      <rects>
        <_>
          13 5 10 18 -1.</_>
        <_>
          18 5 5 18 2.</_></rects>
      <tilted>0</tilted></_>
    <_>
      <rects>
        <_>
          13 6 2 6 -1.</_>
        <_>
          13 8 2 2 2.</_></rects>
      <tilted>0</tilted></_>
    <_>
      <rects>
        <_>
          13 14 8 2 -1.</_>
        <_>
          13 15 8 1 2.</_></rects>
      <tilted>0</tilted></_>
    <_>
      <rects>
        <_>
          13 18 10 4 -1.</_>
        <_>
          18 18 5 4 2.</_></rects>
      <tilted>0</tilted></_>
    <_>
      <rects>
        <_>
          14 2 6 15 -1.</_>
        <_>
          14 7 6 5 2.</_></rects>
      <tilted>0</tilted></_>
    <_>
      <rects>
        <_>
          14 3 10 11 -1.</_>
        <_>
          19 3 5 11 2.</_></rects>
      <tilted>0</tilted></_>
    <_>
      <rects>
        <_>
          14 4 7 9 -1.</_>
        <_>
          14 7 7 3 2.</_></rects>
      <tilted>0</tilted></_>
    <_>
      <rects>
        <_>
          14 9 2 4 -1.</_>
        <_>
          14 9 1 2 2.</_>
        <_>
          15 11 1 2 2.</_></rects>
      <tilted>0</tilted></_>
    <_>
      <rects>
        <_>
          14 17 6 2 -1.</_>
        <_>
          16 17 2 2 2.</_></rects>
      <tilted>0</tilted></_>
    <_>
      <rects>
        <_>
          14 22 2 2 -1.</_>
        <_>
          14 22 1 1 2.</_>
        <_>
          15 23 1 1 2.</_></rects>
      <tilted>0</tilted></_>
    <_>
      <rects>
        <_>
          15 3 8 10 -1.</_>
        <_>
          15 3 4 5 2.</_>
        <_>
          19 8 4 5 2.</_></rects>
      <tilted>0</tilted></_>
    <_>
      <rects>
        <_>
          15 15 9 2 -1.</_>
        <_>
          18 15 3 2 2.</_></rects>
      <tilted>0</tilted></_>
    <_>
      <rects>
        <_>
          15 20 9 4 -1.</_>
        <_>
          18 20 3 4 2.</_></rects>
      <tilted>0</tilted></_>
    <_>
      <rects>
        <_>
          16 1 8 19 -1.</_>
        <_>
          20 1 4 19 2.</_></rects>
      <tilted>0</tilted></_>
    <_>
      <rects>
        <_>
          16 6 1 6 -1.</_>
        <_>
          16 9 1 3 2.</_></rects>
      <tilted>0</tilted></_>
    <_>
      <rects>
        <_>
          16 8 7 12 -1.</_>
        <_>
          16 12 7 4 2.</_></rects>
      <tilted>0</tilted></_>
    <_>
      <rects>
        <_>
          16 8 7 12 -1.</_>
        <_>
          16 14 7 6 2.</_></rects>
      <tilted>0</tilted></_>
    <_>
      <rects>
        <_>
          16 16 2 2 -1.</_>
        <_>
          17 16 1 2 2.</_></rects>
      <tilted>0</tilted></_>
    <_>
      <rects>
        <_>
          16 17 8 2 -1.</_>
        <_>
          20 17 4 2 2.</_></rects>
      <tilted>0</tilted></_>
    <_>
      <rects>
        <_>
          17 1 4 10 -1.</_>
        <_>
          19 1 2 10 2.</_></rects>
      <tilted>0</tilted></_>
    <_>
      <rects>
        <_>
          17 6 6 12 -1.</_>
        <_>
          20 6 3 12 2.</_></rects>
      <tilted>0</tilted></_>
    <_>
      <rects>
        <_>
          17 8 6 9 -1.</_>
        <_>
          20 8 3 9 2.</_></rects>
      <tilted>0</tilted></_>
    <_>
      <rects>
        <_>
          17 8 4 8 -1.</_>
        <_>
          17 12 4 4 2.</_></rects>
      <tilted>0</tilted></_>
    <_>
      <rects>
        <_>
          17 16 2 3 -1.</_>
        <_>
          18 16 1 3 2.</_></rects>
      <tilted>0</tilted></_>
    <_>
      <rects>
        <_>
          17 20 4 2 -1.</_>
        <_>
          19 20 2 2 2.</_></rects>
      <tilted>0</tilted></_>
    <_>
      <rects>
        <_>
          17 22 2 2 -1.</_>
        <_>
          17 22 1 1 2.</_>
        <_>
          18 23 1 1 2.</_></rects>
      <tilted>0</tilted></_>
    <_>
      <rects>
        <_>
          18 0 2 2 -1.</_>
        <_>
          18 0 1 1 2.</_>
        <_>
          19 1 1 1 2.</_></rects>
      <tilted>0</tilted></_>
    <_>
      <rects>
        <_>
          18 4 1 3 -1.</_>
        <_>
          18 5 1 1 2.</_></rects>
      <tilted>0</tilted></_>
    <_>
      <rects>
        <_>
          18 4 2 10 -1.</_>
        <_>
          18 4 1 5 2.</_>
        <_>
          19 9 1 5 2.</_></rects>
      <tilted>0</tilted></_>
    <_>
      <rects>
        <_>
          18 4 6 2 -1.</_>
        <_>
          20 4 2 2 2.</_></rects>
      <tilted>0</tilted></_>
    <_>
      <rects>
        <_>
          18 5 2 18 -1.</_>
        <_>
          18 5 1 9 2.</_>
        <_>
          19 14 1 9 2.</_></rects>
      <tilted>0</tilted></_>
    <_>
      <rects>
        <_>
          18 8 6 14 -1.</_>
        <_>
          21 8 3 14 2.</_></rects>
      <tilted>0</tilted></_>
    <_>
      <rects>
        <_>
          18 21 2 2 -1.</_>
        <_>
          19 21 1 2 2.</_></rects>
      <tilted>0</tilted></_>
    <_>
      <rects>
        <_>
          18 22 5 2 -1.</_>
        <_>
          18 23 5 1 2.</_></rects>
      <tilted>0</tilted></_>
    <_>
      <rects>
        <_>
          19 1 1 9 -1.</_>
        <_>
          19 4 1 3 2.</_></rects>
      <tilted>0</tilted></_>
    <_>
      <rects>
        <_>
          19 2 1 2 -1.</_>
        <_>
          19 3 1 1 2.</_></rects>
      <tilted>0</tilted></_>
    <_>
      <rects>
        <_>
          19 5 2 6 -1.</_>
        <_>
          20 5 1 6 2.</_></rects>
      <tilted>0</tilted></_>
    <_>
      <rects>
        <_>
          19 5 4 6 -1.</_>
        <_>
          19 8 4 3 2.</_></rects>
      <tilted>0</tilted></_>
    <_>
      <rects>
        <_>
          19 23 3 1 -1.</_>
        <_>
          20 23 1 1 2.</_></rects>
      <tilted>0</tilted></_>
    <_>
      <rects>
        <_>
          20 0 2 2 -1.</_>
        <_>
          20 0 1 1 2.</_>
        <_>
          21 1 1 1 2.</_></rects>
      <tilted>0</tilted></_>
    <_>
      <rects>
        <_>
          20 1 4 2 -1.</_>
        <_>
          20 1 2 1 2.</_>
        <_>
          22 2 2 1 2.</_></rects>
      <tilted>0</tilted></_>
    <_>
      <rects>
        <_>
          20 3 2 11 -1.</_>
        <_>
          21 3 1 11 2.</_></rects>
      <tilted>0</tilted></_>
    <_>
      <rects>
        <_>
          20 8 4 2 -1.</_>
        <_>
          20 8 2 1 2.</_>
        <_>
          22 9 2 1 2.</_></rects>
      <tilted>0</tilted></_>
    <_>
      <rects>
        <_>
          20 20 2 2 -1.</_>
        <_>
          20 20 1 1 2.</_>
        <_>
          21 21 1 1 2.</_></rects>
      <tilted>0</tilted></_>
    <_>
      <rects>
        <_>
          21 1 2 2 -1.</_>
        <_>
          21 1 1 1 2.</_>
        <_>
          22 2 1 1 2.</_></rects>
      <tilted>0</tilted></_>
    <_>
      <rects>
        <_>
          21 1 2 6 -1.</_>
        <_>
          21 1 1 3 2.</_>
        <_>
          22 4 1 3 2.</_></rects>
      <tilted>0</tilted></_>
    <_>
      <rects>
        <_>
          21 6 2 17 -1.</_>
        <_>
          22 6 1 17 2.</_></rects>
      <tilted>0</tilted></_>
    <_>
      <rects>
        <_>
          21 7 2 12 -1.</_>
        <_>
          22 7 1 12 2.</_></rects>
      <tilted>0</tilted></_>
    <_>
      <rects>
        <_>
          21 12 2 5 -1.</_>
        <_>
          22 12 1 5 2.</_></rects>
      <tilted>0</tilted></_>
    <_>
      <rects>
        <_>
          21 17 2 4 -1.</_>
        <_>
          22 17 1 4 2.</_></rects>
      <tilted>0</tilted></_>
    <_>
      <rects>
        <_>
          22 0 2 10 -1.</_>
        <_>
          22 0 1 5 2.</_>
        <_>
          23 5 1 5 2.</_></rects>
      <tilted>0</tilted></_>
    <_>
      <rects>
        <_>
          22 7 2 1 -1.</_>
        <_>
          23 7 1 1 2.</_></rects>
      <tilted>0</tilted></_>
    <_>
      <rects>
        <_>
          22 10 2 5 -1.</_>
        <_>
          23 10 1 5 2.</_></rects>
      <tilted>0</tilted></_>
    <_>
      <rects>
        <_>
          22 11 2 8 -1.</_>
        <_>
          22 11 1 4 2.</_>
        <_>
          23 15 1 4 2.</_></rects>
      <tilted>0</tilted></_>
    <_>
      <rects>
        <_>
          22 12 2 3 -1.</_>
        <_>
          23 12 1 3 2.</_></rects>
      <tilted>0</tilted></_>
    <_>
      <rects>
        <_>
          23 1 1 9 -1.</_>
        <_>
          23 4 1 3 2.</_></rects>
      <tilted>0</tilted></_>
    <_>
      <rects>
        <_>
          23 22 1 2 -1.</_>
        <_>
          23 23 1 1 2.</_></rects>
      <tilted>0</tilted></_></features></cascade>
</opencv_storage>
