<?xml version="1.0"?>
<opencv_storage>
<cascade>
  <stageType>BOOST</stageType>
  <featureType>HAAR</featureType>
  <height>24</height>
  <width>24</width>
  <stageParams>
    <boostType>GAB</boostType>
    <minHitRate>9.9500000476837158e-01</minHitRate>
    <maxFalseAlarm>5.0000000000000000e-01</maxFalseAlarm>
    <weightTrimRate>9.4999999999999996e-01</weightTrimRate>
    <maxDepth>1</maxDepth>
    <maxWeakCount>100</maxWeakCount></stageParams>
  <featureParams>
    <maxCatCount>0</maxCatCount>
    <featSize>1</featSize>
    <mode>BASIC</mode></featureParams>
  <stageNum>30</stageNum>
  <stages>
    <!-- stage 0 -->
    <_>
      <maxWeakCount>2</maxWeakCount>
      <stageThreshold>8.0390699207782745e-02</stageThreshold>
      <weakClassifiers>
        <_>
          <internalNodes>
            0 -1 6 -7.5149357318878174e-02</internalNodes>
          <leafValues>
            9.1111111640930176e-01 -7.4545454978942871e-01</leafValues></_>
        <_>
          <internalNodes>
            0 -1 76 5.9563718736171722e-02</internalNodes>
          <leafValues>
            -8.3072042465209961e-01 8.9384192228317261e-01</leafValues></_></weakClassifiers></_>
    <!-- stage 1 -->
    <_>
      <maxWeakCount>3</maxWeakCount>
      <stageThreshold>-6.9874894618988037e-01</stageThreshold>
      <weakClassifiers>
        <_>
          <internalNodes>
            0 -1 39 -7.4471384286880493e-02</internalNodes>
          <leafValues>
            7.0642203092575073e-01 -8.4615385532379150e-01</leafValues></_>
        <_>
          <internalNodes>
            0 -1 65 -1.2468909844756126e-02</internalNodes>
          <leafValues>
            -6.9453614950180054e-01 8.4375888109207153e-01</leafValues></_>
        <_>
          <internalNodes>
            0 -1 5 -4.9686901271343231e-02</internalNodes>
          <leafValues>
            8.4194099903106689e-01 -5.7059329748153687e-01</leafValues></_></weakClassifiers></_>
    <!-- stage 2 -->
    <_>
      <maxWeakCount>2</maxWeakCount>
      <stageThreshold>-1.0998711735010147e-01</stageThreshold>
      <weakClassifiers>
        <_>
          <internalNodes>
            0 -1 61 -8.1095546483993530e-02</internalNodes>
          <leafValues>
            -6.2393164634704590e-01 8.7951809167861938e-01</leafValues></_>
        <_>
          <internalNodes>
            0 -1 43 -2.1303053945302963e-02</internalNodes>
          <leafValues>
            -1. 5.1394450664520264e-01</leafValues></_></weakClassifiers></_>
    <!-- stage 3 -->
    <_>
      <maxWeakCount>4</maxWeakCount>
      <stageThreshold>-1.8833506107330322e-01</stageThreshold>
      <weakClassifiers>
        <_>
          <internalNodes>
            0 -1 1 -7.4187137186527252e-02</internalNodes>
          <leafValues>
            5.8878505229949951e-01 -6.7741936445236206e-01</leafValues></_>
        <_>
          <internalNodes>
            0 -1 0 -1.8368966877460480e-01</internalNodes>
          <leafValues>
            5.5095702409744263e-01 -6.2356990575790405e-01</leafValues></_>
        <_>
          <internalNodes>
            0 -1 18 -1.0768718784675002e-03</internalNodes>
          <leafValues>
            4.4944411516189575e-01 -7.3681622743606567e-01</leafValues></_>
        <_>
          <internalNodes>
            0 -1 19 2.3477178066968918e-02</internalNodes>
          <leafValues>
            -5.0417995452880859e-01 6.7494344711303711e-01</leafValues></_></weakClassifiers></_>
    <!-- stage 4 -->
    <_>
      <maxWeakCount>6</maxWeakCount>
      <stageThreshold>-3.0303904786705971e-02</stageThreshold>
      <weakClassifiers>
        <_>
          <internalNodes>
            0 -1 62 9.6244821324944496e-03</internalNodes>
          <leafValues>
            -6.8085104227066040e-01 6.0377359390258789e-01</leafValues></_>
        <_>
          <internalNodes>
            0 -1 89 2.5902304798364639e-02</internalNodes>
          <leafValues>
            -5.1093006134033203e-01 6.4530116319656372e-01</leafValues></_>
        <_>
          <internalNodes>
            0 -1 11 -7.9798337537795305e-04</internalNodes>
          <leafValues>
            4.0523713827133179e-01 -7.8184664249420166e-01</leafValues></_>
        <_>
          <internalNodes>
            0 -1 44 -1.6240540426224470e-03</internalNodes>
          <leafValues>
            -8.3547991514205933e-01 3.3030903339385986e-01</leafValues></_>
        <_>
          <internalNodes>
            0 -1 79 1.0134442150592804e-01</internalNodes>
          <leafValues>
            -4.2910009622573853e-01 8.9511346817016602e-01</leafValues></_>
        <_>
          <internalNodes>
            0 -1 25 -4.5647162944078445e-02</internalNodes>
          <leafValues>
            8.8953286409378052e-01 -3.0120003223419189e-01</leafValues></_></weakClassifiers></_>
    <!-- stage 5 -->
    <_>
      <maxWeakCount>3</maxWeakCount>
      <stageThreshold>-6.3265442848205566e-01</stageThreshold>
      <weakClassifiers>
        <_>
          <internalNodes>
            0 -1 37 -5.6131434394046664e-04</internalNodes>
          <leafValues>
            5.6140351295471191e-01 -7.4418604373931885e-01</leafValues></_>
        <_>
          <internalNodes>
            0 -1 78 -3.2386891543865204e-02</internalNodes>
          <leafValues>
            -5.3063875436782837e-01 7.8463232517242432e-01</leafValues></_>
        <_>
          <internalNodes>
            0 -1 24 -1.3470858102664351e-03</internalNodes>
          <leafValues>
            -6.6341918706893921e-01 6.4528757333755493e-01</leafValues></_></weakClassifiers></_>
    <!-- stage 6 -->
    <_>
      <maxWeakCount>3</maxWeakCount>
      <stageThreshold>-5.8501452207565308e-01</stageThreshold>
      <weakClassifiers>
        <_>
          <internalNodes>
            0 -1 20 -6.8408926017582417e-04</internalNodes>
          <leafValues>
            6.2000000476837158e-01 -6.2000000476837158e-01</leafValues></_>
        <_>
          <internalNodes>
            0 -1 4 -1.6692802309989929e-02</internalNodes>
          <leafValues>
            7.2098207473754883e-01 -5.9232717752456665e-01</leafValues></_>
        <_>
          <internalNodes>
            0 -1 54 -4.0407222695648670e-04</internalNodes>
          <leafValues>
            7.5697344541549683e-01 -6.1268734931945801e-01</leafValues></_></weakClassifiers></_>
    <!-- stage 7 -->
    <_>
      <maxWeakCount>5</maxWeakCount>
      <stageThreshold>-3.5118901729583740e-01</stageThreshold>
      <weakClassifiers>
        <_>
          <internalNodes>
            0 -1 3 -5.0028651952743530e-02</internalNodes>
          <leafValues>
            5.8928573131561279e-01 -7.5000000000000000e-01</leafValues></_>
        <_>
          <internalNodes>
            0 -1 64 -2.3759418400004506e-04</internalNodes>
          <leafValues>
            7.9049652814865112e-01 -7.0786011219024658e-01</leafValues></_>
        <_>
          <internalNodes>
            0 -1 73 -2.9761537909507751e-02</internalNodes>
          <leafValues>
            6.9689834117889404e-01 -6.6850095987319946e-01</leafValues></_>
        <_>
          <internalNodes>
            0 -1 21 -7.7823409810662270e-03</internalNodes>
          <leafValues>
            9.4676673412322998e-01 -5.0567710399627686e-01</leafValues></_>
        <_>
          <internalNodes>
            0 -1 70 -1.2188363820314407e-02</internalNodes>
          <leafValues>
            -4.2383590340614319e-01 9.5317739248275757e-01</leafValues></_></weakClassifiers></_>
    <!-- stage 8 -->
    <_>
      <maxWeakCount>4</maxWeakCount>
      <stageThreshold>-8.0342757701873779e-01</stageThreshold>
      <weakClassifiers>
        <_>
          <internalNodes>
            0 -1 97 1.1070342734456062e-03</internalNodes>
          <leafValues>
            -4.8031497001647949e-01 8.3561640977859497e-01</leafValues></_>
        <_>
          <internalNodes>
            0 -1 66 -1.5630017966032028e-02</internalNodes>
          <leafValues>
            -3.4494712948799133e-01 9.4968646764755249e-01</leafValues></_>
        <_>
          <internalNodes>
            0 -1 12 -4.1107792407274246e-02</internalNodes>
          <leafValues>
            6.0303765535354614e-01 -6.3419800996780396e-01</leafValues></_>
        <_>
          <internalNodes>
            0 -1 56 -4.7613139031454921e-04</internalNodes>
          <leafValues>
            -5.8120310306549072e-01 7.0273631811141968e-01</leafValues></_></weakClassifiers></_>
    <!-- stage 9 -->
    <_>
      <maxWeakCount>4</maxWeakCount>
      <stageThreshold>-7.0784294605255127e-01</stageThreshold>
      <weakClassifiers>
        <_>
          <internalNodes>
            0 -1 93 5.8117648586630821e-04</internalNodes>
          <leafValues>
            -6.1403506994247437e-01 8.1395345926284790e-01</leafValues></_>
        <_>
          <internalNodes>
            0 -1 58 5.0753345713019371e-03</internalNodes>
          <leafValues>
            -2.8763678669929504e-01 1.</leafValues></_>
        <_>
          <internalNodes>
            0 -1 72 -2.8492417186498642e-04</internalNodes>
          <leafValues>
            -4.0702167153358459e-01 7.9281771183013916e-01</leafValues></_>
        <_>
          <internalNodes>
            0 -1 90 1.6049630357883871e-04</internalNodes>
          <leafValues>
            -5.4612553119659424e-01 6.0085058212280273e-01</leafValues></_></weakClassifiers></_>
    <!-- stage 10 -->
    <_>
      <maxWeakCount>3</maxWeakCount>
      <stageThreshold>-9.0773713588714600e-01</stageThreshold>
      <weakClassifiers>
        <_>
          <internalNodes>
            0 -1 84 3.4901610342785716e-04</internalNodes>
          <leafValues>
            -7.3333334922790527e-01 6.0000002384185791e-01</leafValues></_>
        <_>
          <internalNodes>
            0 -1 95 2.4123620241880417e-03</internalNodes>
          <leafValues>
            -5.8739292621612549e-01 6.2660408020019531e-01</leafValues></_>
        <_>
          <internalNodes>
            0 -1 13 9.7370077855885029e-04</internalNodes>
          <leafValues>
            4.5175915956497192e-01 -9.2034417390823364e-01</leafValues></_></weakClassifiers></_>
    <!-- stage 11 -->
    <_>
      <maxWeakCount>4</maxWeakCount>
      <stageThreshold>-9.6965275704860687e-02</stageThreshold>
      <weakClassifiers>
        <_>
          <internalNodes>
            0 -1 8 -2.7569860219955444e-02</internalNodes>
          <leafValues>
            7.1764707565307617e-01 -5.3043478727340698e-01</leafValues></_>
        <_>
          <internalNodes>
            0 -1 68 2.6298197917640209e-03</internalNodes>
          <leafValues>
            3.8234484195709229e-01 -9.0874963998794556e-01</leafValues></_>
        <_>
          <internalNodes>
            0 -1 29 2.4031021166592836e-04</internalNodes>
          <leafValues>
            -6.8409603834152222e-01 4.5468693971633911e-01</leafValues></_>
        <_>
          <internalNodes>
            0 -1 96 -5.9005233924835920e-04</internalNodes>
          <leafValues>
            9.3431317806243896e-01 -3.6054959893226624e-01</leafValues></_></weakClassifiers></_>
    <!-- stage 12 -->
    <_>
      <maxWeakCount>3</maxWeakCount>
      <stageThreshold>-4.9890112876892090e-01</stageThreshold>
      <weakClassifiers>
        <_>
          <internalNodes>
            0 -1 34 -7.8063453547656536e-03</internalNodes>
          <leafValues>
            5.8928573131561279e-01 -7.5000000000000000e-01</leafValues></_>
        <_>
          <internalNodes>
            0 -1 81 2.9697068966925144e-03</internalNodes>
          <leafValues>
            -6.8710833787918091e-01 6.5597212314605713e-01</leafValues></_>
        <_>
          <internalNodes>
            0 -1 91 1.5898023266345263e-03</internalNodes>
          <leafValues>
            -4.0107846260070801e-01 1.</leafValues></_></weakClassifiers></_>
    <!-- stage 13 -->
    <_>
      <maxWeakCount>1</maxWeakCount>
      <stageThreshold>4.4927537441253662e-01</stageThreshold>
      <weakClassifiers>
        <_>
          <internalNodes>
            0 -1 31 -2.6978679001331329e-02</internalNodes>
          <leafValues>
            -1. 4.4927537441253662e-01</leafValues></_></weakClassifiers></_>
    <!-- stage 14 -->
    <_>
      <maxWeakCount>4</maxWeakCount>
      <stageThreshold>-2.5082686543464661e-01</stageThreshold>
      <weakClassifiers>
        <_>
          <internalNodes>
            0 -1 10 -5.2795197814702988e-02</internalNodes>
          <leafValues>
            8.9873415231704712e-01 -5.8677685260772705e-01</leafValues></_>
        <_>
          <internalNodes>
            0 -1 46 2.1453397348523140e-03</internalNodes>
          <leafValues>
            5.9944665431976318e-01 -9.0629160404205322e-01</leafValues></_>
        <_>
          <internalNodes>
            0 -1 55 -1.5021239407360554e-02</internalNodes>
          <leafValues>
            6.2744337320327759e-01 -7.2181874513626099e-01</leafValues></_>
        <_>
          <internalNodes>
            0 -1 48 -3.3587843179702759e-02</internalNodes>
          <leafValues>
            -8.4416574239730835e-01 6.1479818820953369e-01</leafValues></_></weakClassifiers></_>
    <!-- stage 15 -->
    <_>
      <maxWeakCount>3</maxWeakCount>
      <stageThreshold>-7.7474391460418701e-01</stageThreshold>
      <weakClassifiers>
        <_>
          <internalNodes>
            0 -1 2 -1.3178765773773193e-01</internalNodes>
          <leafValues>
            8.1632655858993530e-01 -7.8431373834609985e-01</leafValues></_>
        <_>
          <internalNodes>
            0 -1 16 -3.1898893415927887e-02</internalNodes>
          <leafValues>
            8.9387923479080200e-01 -6.0479009151458740e-01</leafValues></_>
        <_>
          <internalNodes>
            0 -1 17 3.0131563544273376e-03</internalNodes>
          <leafValues>
            6.1435991525650024e-01 -8.4262245893478394e-01</leafValues></_></weakClassifiers></_>
    <!-- stage 16 -->
    <_>
      <maxWeakCount>4</maxWeakCount>
      <stageThreshold>-1.4958405494689941e-01</stageThreshold>
      <weakClassifiers>
        <_>
          <internalNodes>
            0 -1 57 -1.4703722670674324e-02</internalNodes>
          <leafValues>
            -7.9746836423873901e-01 5.2066117525100708e-01</leafValues></_>
        <_>
          <internalNodes>
            0 -1 38 -7.4137128889560699e-02</internalNodes>
          <leafValues>
            5.7200932502746582e-01 -6.9140648841857910e-01</leafValues></_>
        <_>
          <internalNodes>
            0 -1 92 -7.5001044024247676e-05</internalNodes>
          <leafValues>
            -5.1489871740341187e-01 7.2556835412979126e-01</leafValues></_>
        <_>
          <internalNodes>
            0 -1 51 1.6089593991637230e-03</internalNodes>
          <leafValues>
            6.9006866216659546e-01 -6.4969336986541748e-01</leafValues></_></weakClassifiers></_>
    <!-- stage 17 -->
    <_>
      <maxWeakCount>2</maxWeakCount>
      <stageThreshold>1.3740392029285431e-01</stageThreshold>
      <weakClassifiers>
        <_>
          <internalNodes>
            0 -1 69 -6.1901574954390526e-03</internalNodes>
          <leafValues>
            8.5858583450317383e-01 -8.4158414602279663e-01</leafValues></_>
        <_>
          <internalNodes>
            0 -1 26 5.1233582198619843e-03</internalNodes>
          <leafValues>
            -5.3638994693756104e-01 9.7898805141448975e-01</leafValues></_></weakClassifiers></_>
    <!-- stage 18 -->
    <_>
      <maxWeakCount>2</maxWeakCount>
      <stageThreshold>-1.5278925001621246e-01</stageThreshold>
      <weakClassifiers>
        <_>
          <internalNodes>
            0 -1 99 1.0509738698601723e-02</internalNodes>
          <leafValues>
            7.0175439119338989e-01 -9.3023258447647095e-01</leafValues></_>
        <_>
          <internalNodes>
            0 -1 9 -3.8318157196044922e-02</internalNodes>
          <leafValues>
            7.7744328975677490e-01 -6.2286734580993652e-01</leafValues></_></weakClassifiers></_>
    <!-- stage 19 -->
    <_>
      <maxWeakCount>5</maxWeakCount>
      <stageThreshold>-2.7996706962585449e-01</stageThreshold>
      <weakClassifiers>
        <_>
          <internalNodes>
            0 -1 32 -2.7019227854907513e-04</internalNodes>
          <leafValues>
            6.0000002384185791e-01 -6.6315788030624390e-01</leafValues></_>
        <_>
          <internalNodes>
            0 -1 35 -7.4942223727703094e-04</internalNodes>
          <leafValues>
            -6.0260653495788574e-01 6.3858485221862793e-01</leafValues></_>
        <_>
          <internalNodes>
            0 -1 50 -1.9323450978845358e-03</internalNodes>
          <leafValues>
            5.9595292806625366e-01 -6.6028165817260742e-01</leafValues></_>
        <_>
          <internalNodes>
            0 -1 98 2.4858678807504475e-04</internalNodes>
          <leafValues>
            -4.6791884303092957e-01 8.0221951007843018e-01</leafValues></_>
        <_>
          <internalNodes>
            0 -1 74 2.4921414442360401e-03</internalNodes>
          <leafValues>
            -3.8342812657356262e-01 8.6401998996734619e-01</leafValues></_></weakClassifiers></_>
    <!-- stage 20 -->
    <_>
      <maxWeakCount>4</maxWeakCount>
      <stageThreshold>-4.7272309660911560e-01</stageThreshold>
      <weakClassifiers>
        <_>
          <internalNodes>
            0 -1 60 -6.6556721925735474e-02</internalNodes>
          <leafValues>
            -5.3225809335708618e-01 8.6842107772827148e-01</leafValues></_>
        <_>
          <internalNodes>
            0 -1 63 -5.8134160935878754e-02</internalNodes>
          <leafValues>
            -7.9620337486267090e-01 5.8297431468963623e-01</leafValues></_>
        <_>
          <internalNodes>
            0 -1 14 -1.7163199372589588e-03</internalNodes>
          <leafValues>
            -8.5215544700622559e-01 4.6545061469078064e-01</leafValues></_>
        <_>
          <internalNodes>
            0 -1 53 -5.6713941739872098e-04</internalNodes>
          <leafValues>
            -8.3813410997390747e-01 3.9028772711753845e-01</leafValues></_></weakClassifiers></_>
    <!-- stage 21 -->
    <_>
      <maxWeakCount>3</maxWeakCount>
      <stageThreshold>-6.2755084037780762e-01</stageThreshold>
      <weakClassifiers>
        <_>
          <internalNodes>
            0 -1 80 1.2725667096674442e-02</internalNodes>
          <leafValues>
            -5.0400000810623169e-01 8.3999997377395630e-01</leafValues></_>
        <_>
          <internalNodes>
            0 -1 40 -3.3672761637717485e-03</internalNodes>
          <leafValues>
            -6.3303804397583008e-01 6.2987929582595825e-01</leafValues></_>
        <_>
          <internalNodes>
            0 -1 42 -1.0913240257650614e-03</internalNodes>
          <leafValues>
            5.0948721170425415e-01 -6.8927276134490967e-01</leafValues></_></weakClassifiers></_>
    <!-- stage 22 -->
    <_>
      <maxWeakCount>3</maxWeakCount>
      <stageThreshold>-9.0248149633407593e-01</stageThreshold>
      <weakClassifiers>
        <_>
          <internalNodes>
            0 -1 7 -8.7500000372529030e-03</internalNodes>
          <leafValues>
            9.0588235855102539e-01 -6.6956520080566406e-01</leafValues></_>
        <_>
          <internalNodes>
            0 -1 15 -1.3880313374102116e-02</internalNodes>
          <leafValues>
            -8.3898288011550903e-01 6.5670716762542725e-01</leafValues></_>
        <_>
          <internalNodes>
            0 -1 28 1.6352673992514610e-03</internalNodes>
          <leafValues>
            6.0606658458709717e-01 -8.7921899557113647e-01</leafValues></_></weakClassifiers></_>
    <!-- stage 23 -->
    <_>
      <maxWeakCount>2</maxWeakCount>
      <stageThreshold>-3.8262359797954559e-02</stageThreshold>
      <weakClassifiers>
        <_>
          <internalNodes>
            0 -1 87 -3.1556181609630585e-02</internalNodes>
          <leafValues>
            -7.2000002861022949e-01 7.2000002861022949e-01</leafValues></_>
        <_>
          <internalNodes>
            0 -1 52 -6.0095051303505898e-03</internalNodes>
          <leafValues>
            -7.5826233625411987e-01 7.1321839094161987e-01</leafValues></_></weakClassifiers></_>
    <!-- stage 24 -->
    <_>
      <maxWeakCount>4</maxWeakCount>
      <stageThreshold>-4.2026024311780930e-02</stageThreshold>
      <weakClassifiers>
        <_>
          <internalNodes>
            0 -1 22 -2.2955793887376785e-02</internalNodes>
          <leafValues>
            5.5000001192092896e-01 -8.2499998807907104e-01</leafValues></_>
        <_>
          <internalNodes>
            0 -1 23 -9.2453099787235260e-03</internalNodes>
          <leafValues>
            -7.0395183563232422e-01 7.2422528266906738e-01</leafValues></_>
        <_>
          <internalNodes>
            0 -1 88 1.6655335202813148e-02</internalNodes>
          <leafValues>
            -5.8451789617538452e-01 8.1044191122055054e-01</leafValues></_>
        <_>
          <internalNodes>
            0 -1 85 7.3396530933678150e-04</internalNodes>
          <leafValues>
            -6.5483313798904419e-01 6.9644367694854736e-01</leafValues></_></weakClassifiers></_>
    <!-- stage 25 -->
    <_>
      <maxWeakCount>3</maxWeakCount>
      <stageThreshold>-5.2537727355957031e-01</stageThreshold>
      <weakClassifiers>
        <_>
          <internalNodes>
            0 -1 47 -2.6520100072957575e-04</internalNodes>
          <leafValues>
            7.4736839532852173e-01 -6.7619049549102783e-01</leafValues></_>
        <_>
          <internalNodes>
            0 -1 41 -3.3700693398714066e-02</internalNodes>
          <leafValues>
            -5.8641511201858521e-01 6.3423550128936768e-01</leafValues></_>
        <_>
          <internalNodes>
            0 -1 86 -1.4552649110555649e-02</internalNodes>
          <leafValues>
            7.3722833395004272e-01 -4.6047741174697876e-01</leafValues></_></weakClassifiers></_>
    <!-- stage 26 -->
    <_>
      <maxWeakCount>4</maxWeakCount>
      <stageThreshold>-1.2691587209701538e+00</stageThreshold>
      <weakClassifiers>
        <_>
          <internalNodes>
            0 -1 36 -1.5537422150373459e-03</internalNodes>
          <leafValues>
            -8.1632655858993530e-01 7.8431373834609985e-01</leafValues></_>
        <_>
          <internalNodes>
            0 -1 82 8.6676584032829851e-05</internalNodes>
          <leafValues>
            -5.1080936193466187e-01 8.6460661888122559e-01</leafValues></_>
        <_>
          <internalNodes>
            0 -1 77 -8.0582693219184875e-02</internalNodes>
          <leafValues>
            -6.8733704090118408e-01 7.0221543312072754e-01</leafValues></_>
        <_>
          <internalNodes>
            0 -1 45 2.4852386559359729e-04</internalNodes>
          <leafValues>
            7.4531412124633789e-01 -6.7443495988845825e-01</leafValues></_></weakClassifiers></_>
    <!-- stage 27 -->
    <_>
      <maxWeakCount>3</maxWeakCount>
      <stageThreshold>-5.5915427207946777e-01</stageThreshold>
      <weakClassifiers>
        <_>
          <internalNodes>
            0 -1 27 -3.8627611938863993e-03</internalNodes>
          <leafValues>
            8.1176471710205078e-01 -6.0000002384185791e-01</leafValues></_>
        <_>
          <internalNodes>
            0 -1 67 5.4300157353281975e-04</internalNodes>
          <leafValues>
            8.4220880270004272e-01 -5.5035191774368286e-01</leafValues></_>
        <_>
          <internalNodes>
            0 -1 30 -1.7836960614658892e-04</internalNodes>
          <leafValues>
            5.9119766950607300e-01 -7.2288084030151367e-01</leafValues></_></weakClassifiers></_>
    <!-- stage 28 -->
    <_>
      <maxWeakCount>3</maxWeakCount>
      <stageThreshold>-2.7322551608085632e-01</stageThreshold>
      <weakClassifiers>
        <_>
          <internalNodes>
            0 -1 49 -7.5309968087822199e-04</internalNodes>
          <leafValues>
            -6.7346936464309692e-01 6.4705884456634521e-01</leafValues></_>
        <_>
          <internalNodes>
            0 -1 75 -1.5531521057710052e-04</internalNodes>
          <leafValues>
            -5.5657136440277100e-01 8.6146223545074463e-01</leafValues></_>
        <_>
          <internalNodes>
            0 -1 33 5.4044439457356930e-03</internalNodes>
          <leafValues>
            -3.6371296644210815e-01 1.</leafValues></_></weakClassifiers></_>
    <!-- stage 29 -->
    <_>
      <maxWeakCount>4</maxWeakCount>
      <stageThreshold>-7.6998186111450195e-01</stageThreshold>
      <weakClassifiers>
        <_>
          <internalNodes>
            0 -1 59 -2.7567965444177389e-03</internalNodes>
          <leafValues>
            9.6721309423446655e-01 -4.2446044087409973e-01</leafValues></_>
        <_>
          <internalNodes>
            0 -1 71 -1.0653159022331238e-01</internalNodes>
          <leafValues>
            -5.8978182077407837e-01 6.3626289367675781e-01</leafValues></_>
        <_>
          <internalNodes>
            0 -1 83 -1.9624631386250257e-03</internalNodes>
          <leafValues>
            -6.9574940204620361e-01 5.0412344932556152e-01</leafValues></_>
        <_>
          <internalNodes>
            0 -1 94 5.5784179130569100e-04</internalNodes>
          <leafValues>
            -4.5166376233100891e-01 9.1233432292938232e-01</leafValues></_></weakClassifiers></_></stages>
  <features>
    <_>
      <rects>
        <_>
          0 0 18 24 -1.</_>
        <_>
          9 0 9 24 2.</_></rects>
      <tilted>0</tilted></_>
    <_>
      <rects>
        <_>
          0 0 16 10 -1.</_>
        <_>
          0 5 16 5 2.</_></rects>
      <tilted>0</tilted></_>
    <_>
      <rects>
        <_>
          0 0 22 16 -1.</_>
        <_>
          0 8 22 8 2.</_></rects>
      <tilted>0</tilted></_>
    <_>
      <rects>
        <_>
          0 1 8 21 -1.</_>
        <_>
          4 1 4 21 2.</_></rects>
      <tilted>0</tilted></_>
    <_>
      <rects>
        <_>
          0 1 22 4 -1.</_>
        <_>
          0 3 22 2 2.</_></rects>
      <tilted>0</tilted></_>
    <_>
      <rects>
        <_>
          0 3 16 4 -1.</_>
        <_>
          8 3 8 4 2.</_></rects>
      <tilted>0</tilted></_>
    <_>
      <rects>
        <_>
          0 4 10 19 -1.</_>
        <_>
          5 4 5 19 2.</_></rects>
      <tilted>0</tilted></_>
    <_>
      <rects>
        <_>
          0 4 23 4 -1.</_>
        <_>
          0 6 23 2 2.</_></rects>
      <tilted>0</tilted></_>
    <_>
      <rects>
        <_>
          0 5 14 3 -1.</_>
        <_>
          7 5 7 3 2.</_></rects>
      <tilted>0</tilted></_>
    <_>
      <rects>
        <_>
          0 9 6 15 -1.</_>
        <_>
          3 9 3 15 2.</_></rects>
      <tilted>0</tilted></_>
    <_>
      <rects>
        <_>
          0 9 8 13 -1.</_>
        <_>
          4 9 4 13 2.</_></rects>
      <tilted>0</tilted></_>
    <_>
      <rects>
        <_>
          0 13 4 5 -1.</_>
        <_>
          2 13 2 5 2.</_></rects>
      <tilted>0</tilted></_>
    <_>
      <rects>
        <_>
          0 15 16 6 -1.</_>
        <_>
          8 15 8 6 2.</_></rects>
      <tilted>0</tilted></_>
    <_>
      <rects>
        <_>
          0 19 4 1 -1.</_>
        <_>
          2 19 2 1 2.</_></rects>
      <tilted>0</tilted></_>
    <_>
      <rects>
        <_>
          0 19 8 2 -1.</_>
        <_>
          0 20 8 1 2.</_></rects>
      <tilted>0</tilted></_>
    <_>
      <rects>
        <_>
          1 2 4 8 -1.</_>
        <_>
          1 2 2 4 2.</_>
        <_>
          3 6 2 4 2.</_></rects>
      <tilted>0</tilted></_>
    <_>
      <rects>
        <_>
          1 2 20 12 -1.</_>
        <_>
          11 2 10 12 2.</_></rects>
      <tilted>0</tilted></_>
    <_>
      <rects>
        <_>
          1 14 3 2 -1.</_>
        <_>
          1 15 3 1 2.</_></rects>
      <tilted>0</tilted></_>
    <_>
      <rects>
        <_>
          1 16 4 3 -1.</_>
        <_>
          3 16 2 3 2.</_></rects>
      <tilted>0</tilted></_>
    <_>
      <rects>
        <_>
          1 17 17 6 -1.</_>
        <_>
          1 20 17 3 2.</_></rects>
      <tilted>0</tilted></_>
    <_>
      <rects>
        <_>
          1 18 4 3 -1.</_>
        <_>
          3 18 2 3 2.</_></rects>
      <tilted>0</tilted></_>
    <_>
      <rects>
        <_>
          1 22 20 2 -1.</_>
        <_>
          1 23 20 1 2.</_></rects>
      <tilted>0</tilted></_>
    <_>
      <rects>
        <_>
          2 5 8 18 -1.</_>
        <_>
          6 5 4 18 2.</_></rects>
      <tilted>0</tilted></_>
    <_>
      <rects>
        <_>
          2 10 12 6 -1.</_>
        <_>
          2 10 6 3 2.</_>
        <_>
          8 13 6 3 2.</_></rects>
      <tilted>0</tilted></_>
    <_>
      <rects>
        <_>
          2 13 6 4 -1.</_>
        <_>
          2 15 6 2 2.</_></rects>
      <tilted>0</tilted></_>
    <_>
      <rects>
        <_>
          3 3 8 5 -1.</_>
        <_>
          7 3 4 5 2.</_></rects>
      <tilted>0</tilted></_>
    <_>
      <rects>
        <_>
          3 3 14 8 -1.</_>
        <_>
          3 3 7 4 2.</_>
        <_>
          10 7 7 4 2.</_></rects>
      <tilted>0</tilted></_>
    <_>
      <rects>
        <_>
          3 10 4 7 -1.</_>
        <_>
          5 10 2 7 2.</_></rects>
      <tilted>0</tilted></_>
    <_>
      <rects>
        <_>
          3 12 2 8 -1.</_>
        <_>
          3 12 1 4 2.</_>
        <_>
          4 16 1 4 2.</_></rects>
      <tilted>0</tilted></_>
    <_>
      <rects>
        <_>
          3 12 14 8 -1.</_>
        <_>
          3 16 14 4 2.</_></rects>
      <tilted>0</tilted></_>
    <_>
      <rects>
        <_>
          3 13 2 3 -1.</_>
        <_>
          4 13 1 3 2.</_></rects>
      <tilted>0</tilted></_>
    <_>
      <rects>
        <_>
          3 14 2 6 -1.</_>
        <_>
          3 16 2 2 2.</_></rects>
      <tilted>0</tilted></_>
    <_>
      <rects>
        <_>
          3 15 2 3 -1.</_>
        <_>
          4 15 1 3 2.</_></rects>
      <tilted>0</tilted></_>
    <_>
      <rects>
        <_>
          3 21 20 2 -1.</_>
        <_>
          3 22 20 1 2.</_></rects>
      <tilted>0</tilted></_>
    <_>
      <rects>
        <_>
          4 5 4 16 -1.</_>
        <_>
          6 5 2 16 2.</_></rects>
      <tilted>0</tilted></_>
    <_>
      <rects>
        <_>
          4 12 14 2 -1.</_>
        <_>
          4 13 14 1 2.</_></rects>
      <tilted>0</tilted></_>
    <_>
      <rects>
        <_>
          4 13 16 2 -1.</_>
        <_>
          4 14 16 1 2.</_></rects>
      <tilted>0</tilted></_>
    <_>
      <rects>
        <_>
          4 14 4 5 -1.</_>
        <_>
          6 14 2 5 2.</_></rects>
      <tilted>0</tilted></_>
    <_>
      <rects>
        <_>
          5 0 15 10 -1.</_>
        <_>
          5 5 15 5 2.</_></rects>
      <tilted>0</tilted></_>
    <_>
      <rects>
        <_>
          5 0 17 12 -1.</_>
        <_>
          5 6 17 6 2.</_></rects>
      <tilted>0</tilted></_>
    <_>
      <rects>
        <_>
          5 10 13 4 -1.</_>
        <_>
          5 12 13 2 2.</_></rects>
      <tilted>0</tilted></_>
    <_>
      <rects>
        <_>
          5 12 2 12 -1.</_>
        <_>
          5 16 2 4 2.</_></rects>
      <tilted>0</tilted></_>
    <_>
      <rects>
        <_>
          5 12 4 12 -1.</_>
        <_>
          7 12 2 12 2.</_></rects>
      <tilted>0</tilted></_>
    <_>
      <rects>
        <_>
          5 13 6 2 -1.</_>
        <_>
          7 13 2 2 2.</_></rects>
      <tilted>0</tilted></_>
    <_>
      <rects>
        <_>
          5 13 7 2 -1.</_>
        <_>
          5 14 7 1 2.</_></rects>
      <tilted>0</tilted></_>
    <_>
      <rects>
        <_>
          5 15 4 4 -1.</_>
        <_>
          5 15 2 2 2.</_>
        <_>
          7 17 2 2 2.</_></rects>
      <tilted>0</tilted></_>
    <_>
      <rects>
        <_>
          5 16 5 2 -1.</_>
        <_>
          5 17 5 1 2.</_></rects>
      <tilted>0</tilted></_>
    <_>
      <rects>
        <_>
          5 17 4 2 -1.</_>
        <_>
          7 17 2 2 2.</_></rects>
      <tilted>0</tilted></_>
    <_>
      <rects>
        <_>
          5 23 18 1 -1.</_>
        <_>
          11 23 6 1 2.</_></rects>
      <tilted>0</tilted></_>
    <_>
      <rects>
        <_>
          6 10 1 12 -1.</_>
        <_>
          6 16 1 6 2.</_></rects>
      <tilted>0</tilted></_>
    <_>
      <rects>
        <_>
          6 10 6 7 -1.</_>
        <_>
          9 10 3 7 2.</_></rects>
      <tilted>0</tilted></_>
    <_>
      <rects>
        <_>
          6 14 8 4 -1.</_>
        <_>
          6 14 4 2 2.</_>
        <_>
          10 16 4 2 2.</_></rects>
      <tilted>0</tilted></_>
    <_>
      <rects>
        <_>
          6 18 6 3 -1.</_>
        <_>
          9 18 3 3 2.</_></rects>
      <tilted>0</tilted></_>
    <_>
      <rects>
        <_>
          7 16 3 2 -1.</_>
        <_>
          7 17 3 1 2.</_></rects>
      <tilted>0</tilted></_>
    <_>
      <rects>
        <_>
          7 19 8 3 -1.</_>
        <_>
          11 19 4 3 2.</_></rects>
      <tilted>0</tilted></_>
    <_>
      <rects>
        <_>
          8 0 2 14 -1.</_>
        <_>
          8 7 2 7 2.</_></rects>
      <tilted>0</tilted></_>
    <_>
      <rects>
        <_>
          8 0 16 4 -1.</_>
        <_>
          8 0 8 2 2.</_>
        <_>
          16 2 8 2 2.</_></rects>
      <tilted>0</tilted></_>
    <_>
      <rects>
        <_>
          8 15 1 9 -1.</_>
        <_>
          8 18 1 3 2.</_></rects>
      <tilted>0</tilted></_>
    <_>
      <rects>
        <_>
          8 21 15 2 -1.</_>
        <_>
          8 22 15 1 2.</_></rects>
      <tilted>0</tilted></_>
    <_>
      <rects>
        <_>
          9 1 10 1 -1.</_>
        <_>
          14 1 5 1 2.</_></rects>
      <tilted>0</tilted></_>
    <_>
      <rects>
        <_>
          9 8 8 9 -1.</_>
        <_>
          9 11 8 3 2.</_></rects>
      <tilted>0</tilted></_>
    <_>
      <rects>
        <_>
          9 11 9 9 -1.</_>
        <_>
          9 14 9 3 2.</_></rects>
      <tilted>0</tilted></_>
    <_>
      <rects>
        <_>
          9 17 14 3 -1.</_>
        <_>
          16 17 7 3 2.</_></rects>
      <tilted>0</tilted></_>
    <_>
      <rects>
        <_>
          9 22 15 2 -1.</_>
        <_>
          14 22 5 2 2.</_></rects>
      <tilted>0</tilted></_>
    <_>
      <rects>
        <_>
          10 3 1 8 -1.</_>
        <_>
          10 7 1 4 2.</_></rects>
      <tilted>0</tilted></_>
    <_>
      <rects>
        <_>
          10 10 2 6 -1.</_>
        <_>
          10 12 2 2 2.</_></rects>
      <tilted>0</tilted></_>
    <_>
      <rects>
        <_>
          10 10 8 3 -1.</_>
        <_>
          10 11 8 1 2.</_></rects>
      <tilted>0</tilted></_>
    <_>
      <rects>
        <_>
          10 12 4 3 -1.</_>
        <_>
          12 12 2 3 2.</_></rects>
      <tilted>0</tilted></_>
    <_>
      <rects>
        <_>
          10 17 6 2 -1.</_>
        <_>
          10 18 6 1 2.</_></rects>
      <tilted>0</tilted></_>
    <_>
      <rects>
        <_>
          11 0 2 10 -1.</_>
        <_>
          11 5 2 5 2.</_></rects>
      <tilted>0</tilted></_>
    <_>
      <rects>
        <_>
          11 10 3 6 -1.</_>
        <_>
          11 12 3 2 2.</_></rects>
      <tilted>0</tilted></_>
    <_>
      <rects>
        <_>
          11 14 9 9 -1.</_>
        <_>
          14 14 3 9 2.</_></rects>
      <tilted>0</tilted></_>
    <_>
      <rects>
        <_>
          11 19 10 2 -1.</_>
        <_>
          11 19 5 1 2.</_>
        <_>
          16 20 5 1 2.</_></rects>
      <tilted>0</tilted></_>
    <_>
      <rects>
        <_>
          12 0 6 12 -1.</_>
        <_>
          12 6 6 6 2.</_></rects>
      <tilted>0</tilted></_>
    <_>
      <rects>
        <_>
          12 11 10 4 -1.</_>
        <_>
          12 13 10 2 2.</_></rects>
      <tilted>0</tilted></_>
    <_>
      <rects>
        <_>
          14 0 2 10 -1.</_>
        <_>
          14 0 1 5 2.</_>
        <_>
          15 5 1 5 2.</_></rects>
      <tilted>0</tilted></_>
    <_>
      <rects>
        <_>
          14 8 10 14 -1.</_>
        <_>
          19 8 5 14 2.</_></rects>
      <tilted>0</tilted></_>
    <_>
      <rects>
        <_>
          15 0 9 4 -1.</_>
        <_>
          18 0 3 4 2.</_></rects>
      <tilted>0</tilted></_>
    <_>
      <rects>
        <_>
          15 7 3 12 -1.</_>
        <_>
          16 7 1 12 2.</_></rects>
      <tilted>0</tilted></_>
    <_>
      <rects>
        <_>
          16 1 8 16 -1.</_>
        <_>
          20 1 4 16 2.</_></rects>
      <tilted>0</tilted></_>
    <_>
      <rects>
        <_>
          16 11 4 12 -1.</_>
        <_>
          18 11 2 12 2.</_></rects>
      <tilted>0</tilted></_>
    <_>
      <rects>
        <_>
          16 12 8 1 -1.</_>
        <_>
          20 12 4 1 2.</_></rects>
      <tilted>0</tilted></_>
    <_>
      <rects>
        <_>
          16 15 2 1 -1.</_>
        <_>
          17 15 1 1 2.</_></rects>
      <tilted>0</tilted></_>
    <_>
      <rects>
        <_>
          16 16 4 4 -1.</_>
        <_>
          16 18 4 2 2.</_></rects>
      <tilted>0</tilted></_>
    <_>
      <rects>
        <_>
          17 7 2 12 -1.</_>
        <_>
          18 7 1 12 2.</_></rects>
      <tilted>0</tilted></_>
    <_>
      <rects>
        <_>
          17 15 2 8 -1.</_>
        <_>
          18 15 1 8 2.</_></rects>
      <tilted>0</tilted></_>
    <_>
      <rects>
        <_>
          18 1 6 22 -1.</_>
        <_>
          18 1 3 11 2.</_>
        <_>
          21 12 3 11 2.</_></rects>
      <tilted>0</tilted></_>
    <_>
      <rects>
        <_>
          18 4 1 18 -1.</_>
        <_>
          18 10 1 6 2.</_></rects>
      <tilted>0</tilted></_>
    <_>
      <rects>
        <_>
          18 6 4 18 -1.</_>
        <_>
          20 6 2 18 2.</_></rects>
      <tilted>0</tilted></_>
    <_>
      <rects>
        <_>
          18 10 6 10 -1.</_>
        <_>
          21 10 3 10 2.</_></rects>
      <tilted>0</tilted></_>
    <_>
      <rects>
        <_>
          18 17 2 2 -1.</_>
        <_>
          19 17 1 2 2.</_></rects>
      <tilted>0</tilted></_>
    <_>
      <rects>
        <_>
          18 19 2 5 -1.</_>
        <_>
          19 19 1 5 2.</_></rects>
      <tilted>0</tilted></_>
    <_>
      <rects>
        <_>
          19 9 4 4 -1.</_>
        <_>
          19 11 4 2 2.</_></rects>
      <tilted>0</tilted></_>
    <_>
      <rects>
        <_>
          20 6 4 3 -1.</_>
        <_>
          22 6 2 3 2.</_></rects>
      <tilted>0</tilted></_>
    <_>
      <rects>
        <_>
          21 0 2 2 -1.</_>
        <_>
          21 0 1 1 2.</_>
        <_>
          22 1 1 1 2.</_></rects>
      <tilted>0</tilted></_>
    <_>
      <rects>
        <_>
          21 4 2 15 -1.</_>
        <_>
          22 4 1 15 2.</_></rects>
      <tilted>0</tilted></_>
    <_>
      <rects>
        <_>
          21 22 1 2 -1.</_>
        <_>
          21 23 1 1 2.</_></rects>
      <tilted>0</tilted></_>
    <_>
      <rects>
        <_>
          22 6 2 4 -1.</_>
        <_>
          23 6 1 4 2.</_></rects>
      <tilted>0</tilted></_>
    <_>
      <rects>
        <_>
          22 9 2 1 -1.</_>
        <_>
          23 9 1 1 2.</_></rects>
      <tilted>0</tilted></_>
    <_>
      <rects>
        <_>
          23 0 1 24 -1.</_>
        <_>
          23 12 1 12 2.</_></rects>
      <tilted>0</tilted></_></features></cascade>
</opencv_storage>
